<?xml version="1.0"?>
<opencv_storage>
<cascade>
  <stageType>BOOST</stageType>
  <featureType>LBP</featureType>
  <height>30</height>
  <width>15</width>
  <stageParams>
    <boostType>GAB</boostType>
    <minHitRate>9.9500000476837158e-01</minHitRate>
    <maxFalseAlarm>5.0000000000000000e-01</maxFalseAlarm>
    <weightTrimRate>9.4999999999999996e-01</weightTrimRate>
    <maxDepth>1</maxDepth>
    <maxWeakCount>100</maxWeakCount></stageParams>
  <featureParams>
    <maxCatCount>256</maxCatCount>
    <featSize>1</featSize></featureParams>
  <stageNum>17</stageNum>
  <stages>
    <!-- stage 0 -->
    <_>
      <maxWeakCount>2</maxWeakCount>
      <stageThreshold>-5.7633195072412491e-02</stageThreshold>
      <weakClassifiers>
        <_>
          <internalNodes>
            0 -1 20 -79433521 -259931386 285237507 1396916315
            -1324638069 16875520 67575951 2078272511</internalNodes>
          <leafValues>
            -9.8416888713836670e-01 8.8598573207855225e-01</leafValues></_>
        <_>
          <internalNodes>
            0 -1 2 -748686341 -786984693 102818 -246300393 -880565777
            -1610317685 1098961098 -237503857</internalNodes>
          <leafValues>
            -9.0036052465438843e-01 9.2653566598892212e-01</leafValues></_></weakClassifiers></_>
    <!-- stage 1 -->
    <_>
      <maxWeakCount>2</maxWeakCount>
      <stageThreshold>-4.3332770466804504e-02</stageThreshold>
      <weakClassifiers>
        <_>
          <internalNodes>
            0 -1 3 -1 -89 17301490 -1048605 -139 -187 -15 -2104669</internalNodes>
          <leafValues>
            -8.8235294818878174e-01 9.1836732625961304e-01</leafValues></_>
        <_>
          <internalNodes>
            0 -1 23 -104335117 1397047363 -1073741824 1879113734
            -2097051005 -2113929216 -2143188789 1892147859</internalNodes>
          <leafValues>
            -9.4826328754425049e-01 8.3902019262313843e-01</leafValues></_></weakClassifiers></_>
    <!-- stage 2 -->
    <_>
      <maxWeakCount>3</maxWeakCount>
      <stageThreshold>-1.0456711053848267e+00</stageThreshold>
      <weakClassifiers>
        <_>
          <internalNodes>
            0 -1 27 -187445089 -233715447 -1073707503 -199344107
            -2046070133 -1442791360 -594288405 -87297857</internalNodes>
          <leafValues>
            -9.3066668510437012e-01 8.2117646932601929e-01</leafValues></_>
        <_>
          <internalNodes>
            0 -1 4 -721372717 -132430692 17408459 -49839843 -1853849413
            -788489984 -1291392325 -207640423</internalNodes>
          <leafValues>
            -8.3383500576019287e-01 8.6853992938995361e-01</leafValues></_>
        <_>
          <internalNodes>
            0 -1 21 -416295169 -1048211132 -1073031149 1090650496
            -1040121813 -1593728639 -83869301 2079290335</internalNodes>
          <leafValues>
            -9.9297881126403809e-01 7.1883058547973633e-01</leafValues></_></weakClassifiers></_>
    <!-- stage 3 -->
    <_>
      <maxWeakCount>2</maxWeakCount>
      <stageThreshold>-2.0239174365997314e-01</stageThreshold>
      <weakClassifiers>
        <_>
          <internalNodes>
            0 -1 26 -686818345 -649915613 -520027391 -561184250
            -220749641 -953966207 -1064973333 2043015821</internalNodes>
          <leafValues>
            -9.7126436233520508e-01 7.4778759479522705e-01</leafValues></_>
        <_>
          <internalNodes>
            0 -1 25 -228116749 1482539315 1275284123 -126048748
            -1797905219 -123567971 -1011908071 -288376177</internalNodes>
          <leafValues>
            -9.3097865581512451e-01 7.6887261867523193e-01</leafValues></_></weakClassifiers></_>
    <!-- stage 4 -->
    <_>
      <maxWeakCount>2</maxWeakCount>
      <stageThreshold>-1.0805984586477280e-01</stageThreshold>
      <weakClassifiers>
        <_>
          <internalNodes>
            0 -1 6 -707765793 -1727414122 423716349 1368686609
            2066284601 -1625194492 -1581164113 -107622209</internalNodes>
          <leafValues>
            -8.5128206014633179e-01 8.0975610017776489e-01</leafValues></_>
        <_>
          <internalNodes>
            0 -1 19 -241437697 -803930093 1074364685 -627636978
            -2147236989 1073891842 -928399148 2096102983</internalNodes>
          <leafValues>
            -8.9794868230819702e-01 7.4322217702865601e-01</leafValues></_></weakClassifiers></_>
    <!-- stage 5 -->
    <_>
      <maxWeakCount>2</maxWeakCount>
      <stageThreshold>-1.1101814359426498e-01</stageThreshold>
      <weakClassifiers>
        <_>
          <internalNodes>
            0 -1 12 -720381475 352684163 268501529 -108969855 134258835
            4358232 -930488309 -72121141</internalNodes>
          <leafValues>
            -8.9203083515167236e-01 8.4428220987319946e-01</leafValues></_>
        <_>
          <internalNodes>
            0 -1 9 302235967 -1870429949 -2126512127 -805075566
            235080330 273219716 1107348553 -207115637</internalNodes>
          <leafValues>
            -8.9813226461410522e-01 7.8101271390914917e-01</leafValues></_></weakClassifiers></_>
    <!-- stage 6 -->
    <_>
      <maxWeakCount>2</maxWeakCount>
      <stageThreshold>-1.3491062819957733e-01</stageThreshold>
      <weakClassifiers>
        <_>
          <internalNodes>
            0 -1 29 440399775 -1844248289 -838791018 -225821681
            1107546322 -1191652856 -291309430 -83887410</internalNodes>
          <leafValues>
            -9.3767702579498291e-01 7.4049216508865356e-01</leafValues></_>
        <_>
          <internalNodes>
            0 -1 4 -1817882501 -57194483 -535618263 -137002801
            -2147432529 -1308556799 -401040197 -136330337</internalNodes>
          <leafValues>
            -8.2559478282928467e-01 8.0276644229888916e-01</leafValues></_></weakClassifiers></_>
    <!-- stage 7 -->
    <_>
      <maxWeakCount>2</maxWeakCount>
      <stageThreshold>-3.0296516418457031e-01</stageThreshold>
      <weakClassifiers>
        <_>
          <internalNodes>
            0 -1 34 -39063089 1364189443 1879077124 -182992573
            -1006574937 -527368184 -1610243901 995088861</internalNodes>
          <leafValues>
            -9.2982459068298340e-01 6.9432312250137329e-01</leafValues></_>
        <_>
          <internalNodes>
            0 -1 30 1538773503 1976290451 1933807837 -205454315
            1078020779 713871376 -658502513 2141062382</internalNodes>
          <leafValues>
            -9.4704455137252808e-01 6.2685936689376831e-01</leafValues></_></weakClassifiers></_>
    <!-- stage 8 -->
    <_>
      <maxWeakCount>4</maxWeakCount>
      <stageThreshold>-4.1264343261718750e-01</stageThreshold>
      <weakClassifiers>
        <_>
          <internalNodes>
            0 -1 15 -508366861 -1790619567 -2078142157 -150240256
            -1811822461 -931069824 -377388881 -270147456</internalNodes>
          <leafValues>
            -8.1865286827087402e-01 7.6328504085540771e-01</leafValues></_>
        <_>
          <internalNodes>
            0 -1 31 991199733 355756299 -716910571 -73838592 -393633380
            -124288888 -1073198929 -273973110</internalNodes>
          <leafValues>
            -8.5032504796981812e-01 7.2596585750579834e-01</leafValues></_>
        <_>
          <internalNodes>
            0 -1 28 1897910715 -41615055 554042551 -142368621 -234125174
            -1146911509 184789667 1973642083</internalNodes>
          <leafValues>
            -9.6329915523529053e-01 5.9457385540008545e-01</leafValues></_>
        <_>
          <internalNodes>
            0 -1 33 -1145865397 -92241328 1627980812 -91024639
            -1120698091 -654311038 -1962501749 1898963915</internalNodes>
          <leafValues>
            -8.4508544206619263e-01 6.6176062822341919e-01</leafValues></_></weakClassifiers></_>
    <!-- stage 9 -->
    <_>
      <maxWeakCount>2</maxWeakCount>
      <stageThreshold>-2.2106687724590302e-01</stageThreshold>
      <weakClassifiers>
        <_>
          <internalNodes>
            0 -1 18 1598461439 -179224293 -2128541611 -708771629
            1124177898 -64946040 -930477907 -992763689</internalNodes>
          <leafValues>
            -8.0000001192092896e-01 7.6097559928894043e-01</leafValues></_>
        <_>
          <internalNodes>
            0 -1 22 -510394401 -1324760785 -1073708408 -108937142
            1284724943 -1073430326 -1463078305 2120968771</internalNodes>
          <leafValues>
            -9.8204249143600464e-01 6.3653558492660522e-01</leafValues></_></weakClassifiers></_>
    <!-- stage 10 -->
    <_>
      <maxWeakCount>2</maxWeakCount>
      <stageThreshold>-4.6116255223751068e-02</stageThreshold>
      <weakClassifiers>
        <_>
          <internalNodes>
            0 -1 10 -821836517 -953536492 -2097139439 -677838775
            -408123351 -1920431318 -787836213 -173177982</internalNodes>
          <leafValues>
            -8.3333331346511841e-01 7.2429907321929932e-01</leafValues></_>
        <_>
          <internalNodes>
            0 -1 13 -515386885 1997701409 -2126462639 -47953757 34824690
            -1165442413 -1968799601 -91566277</internalNodes>
          <leafValues>
            -7.7041530609130859e-01 8.5704982280731201e-01</leafValues></_></weakClassifiers></_>
    <!-- stage 11 -->
    <_>
      <maxWeakCount>2</maxWeakCount>
      <stageThreshold>-1.0603643208742142e-01</stageThreshold>
      <weakClassifiers>
        <_>
          <internalNodes>
            0 -1 32 1532221919 1879685185 -2134879847 -1874362235
            181933819 -321871739 -1434443619 1487462400</internalNodes>
          <leafValues>
            -8.8888889551162720e-01 6.6375547647476196e-01</leafValues></_>
        <_>
          <internalNodes>
            0 -1 0 1094959319 1368395934 65811 -1191100158 1208631485
            197698056 42162857 -1347704821</internalNodes>
          <leafValues>
            -7.6979190111160278e-01 8.0792427062988281e-01</leafValues></_></weakClassifiers></_>
    <!-- stage 12 -->
    <_>
      <maxWeakCount>3</maxWeakCount>
      <stageThreshold>-8.6003118753433228e-01</stageThreshold>
      <weakClassifiers>
        <_>
          <internalNodes>
            0 -1 16 -2081 -201326602 -138346505 -772079625 -3074 -1
            -67108865 -218395512</internalNodes>
          <leafValues>
            -7.6039117574691772e-01 7.9539644718170166e-01</leafValues></_>
        <_>
          <internalNodes>
            0 -1 11 -1000090365 -662697853 -1073639279 1078026250
            -1065302720 -1064894334 -1879035775 -336077687</internalNodes>
          <leafValues>
            -7.9664379358291626e-01 7.2035163640975952e-01</leafValues></_>
        <_>
          <internalNodes>
            0 -1 36 -1538592150 -1073610752 268435825 -204144563
            1393001115 1220579344 -234708925 -811659893</internalNodes>
          <leafValues>
            -8.0654108524322510e-01 6.9700378179550171e-01</leafValues></_></weakClassifiers></_>
    <!-- stage 13 -->
    <_>
      <maxWeakCount>2</maxWeakCount>
      <stageThreshold>-2.2749169170856476e-01</stageThreshold>
      <weakClassifiers>
        <_>
          <internalNodes>
            0 -1 8 322114953 176710 -1673500557 -805167087 -1723276859
            336855474 -897045365 -4551544</internalNodes>
          <leafValues>
            -7.9514825344085693e-01 6.8764567375183105e-01</leafValues></_>
        <_>
          <internalNodes>
            0 -1 14 -733806586 -785481640 -2147429218 -1656745981
            1375928336 -1869034471 -1876783441 -354910069</internalNodes>
          <leafValues>
            -8.9135342836380005e-01 5.6765657663345337e-01</leafValues></_></weakClassifiers></_>
    <!-- stage 14 -->
    <_>
      <maxWeakCount>2</maxWeakCount>
      <stageThreshold>-3.2026556134223938e-01</stageThreshold>
      <weakClassifiers>
        <_>
          <internalNodes>
            0 -1 24 -527715937 -1761279995 0 -2109406974 -2104983410
            -1065189237 -2097108989 1927776387</internalNodes>
          <leafValues>
            -9.0712076425552368e-01 6.1425578594207764e-01</leafValues></_>
        <_>
          <internalNodes>
            0 -1 37 -805093334 -2004877039 301990035 -804122556
            348168456 536969224 2265218 -205598453</internalNodes>
          <leafValues>
            -9.1554063558578491e-01 5.8685517311096191e-01</leafValues></_></weakClassifiers></_>
    <!-- stage 15 -->
    <_>
      <maxWeakCount>3</maxWeakCount>
      <stageThreshold>-7.7568799257278442e-01</stageThreshold>
      <weakClassifiers>
        <_>
          <internalNodes>
            0 -1 7 -2130607791 -2130182132 536875276 -1862270712 131200
            -1744306176 -2079817688 -1551695869</internalNodes>
          <leafValues>
            -7.2286373376846313e-01 8.5286104679107666e-01</leafValues></_>
        <_>
          <internalNodes>
            0 -1 38 -1073692415 50332928 554172465 -1526708220
            -2147467264 0 -2130673279 1301430338</internalNodes>
          <leafValues>
            -8.6130017042160034e-01 6.9246071577072144e-01</leafValues></_>
        <_>
          <internalNodes>
            0 -1 17 -1342652876 1069465394 -65678 -8667339 -524298
            -524300 -134225923 -537496080</internalNodes>
          <leafValues>
            -7.4528497457504272e-01 8.5799956321716309e-01</leafValues></_></weakClassifiers></_>
    <!-- stage 16 -->
    <_>
      <maxWeakCount>3</maxWeakCount>
      <stageThreshold>-6.8867284059524536e-01</stageThreshold>
      <weakClassifiers>
        <_>
          <internalNodes>
            0 -1 35 -1073741806 -2071985918 33554432 268435456 130
            -2147483648 -2147483644 -2013229056</internalNodes>
          <leafValues>
            -8.1818181276321411e-01 8.9528793096542358e-01</leafValues></_>
        <_>
          <internalNodes>
            0 -1 5 33687554 16793728 1073741824 1 65664 -2139095040
            -2139094845 -1979674584</internalNodes>
          <leafValues>
            -7.2038519382476807e-01 1.</leafValues></_>
        <_>
          <internalNodes>
            0 -1 1 268435456 131080 16 1476395008 16777346 134479874
            32768 -536739712</internalNodes>
          <leafValues>
            -7.9896211624145508e-01 8.4989410638809204e-01</leafValues></_></weakClassifiers></_></stages>
  <features>
    <_>
      <rect>
        0 24 4 2</rect></_>
    <_>
      <rect>
        2 12 3 2</rect></_>
    <_>
      <rect>
        3 1 3 8</rect></_>
    <_>
      <rect>
        3 3 2 8</rect></_>
    <_>
      <rect>
        3 3 3 4</rect></_>
    <_>
      <rect>
        3 19 1 2</rect></_>
    <_>
      <rect>
        3 21 2 3</rect></_>
    <_>
      <rect>
        4 1 2 2</rect></_>
    <_>
      <rect>
        4 4 3 4</rect></_>
    <_>
      <rect>
        4 5 3 4</rect></_>
    <_>
      <rect>
        4 5 3 7</rect></_>
    <_>
      <rect>
        4 6 1 7</rect></_>
    <_>
      <rect>
        4 21 3 3</rect></_>
    <_>
      <rect>
        4 22 2 2</rect></_>
    <_>
      <rect>
        4 27 1 1</rect></_>
    <_>
      <rect>
        5 0 1 2</rect></_>
    <_>
      <rect>
        5 0 2 5</rect></_>
    <_>
      <rect>
        5 1 1 1</rect></_>
    <_>
      <rect>
        5 1 2 2</rect></_>
    <_>
      <rect>
        5 4 1 6</rect></_>
    <_>
      <rect>
        5 8 2 7</rect></_>
    <_>
      <rect>
        5 9 1 7</rect></_>
    <_>
      <rect>
        5 16 1 3</rect></_>
    <_>
      <rect>
        6 0 1 5</rect></_>
    <_>
      <rect>
        6 3 1 4</rect></_>
    <_>
      <rect>
        6 4 2 7</rect></_>
    <_>
      <rect>
        6 5 1 6</rect></_>
    <_>
      <rect>
        6 5 2 7</rect></_>
    <_>
      <rect>
        6 7 1 3</rect></_>
    <_>
      <rect>
        6 8 2 5</rect></_>
    <_>
      <rect>
        6 21 1 1</rect></_>
    <_>
      <rect>
        6 21 2 3</rect></_>
    <_>
      <rect>
        6 22 1 1</rect></_>
    <_>
      <rect>
        7 3 1 4</rect></_>
    <_>
      <rect>
        7 3 1 9</rect></_>
    <_>
      <rect>
        7 27 2 1</rect></_>
    <_>
      <rect>
        8 5 1 3</rect></_>
    <_>
      <rect>
        8 10 1 3</rect></_>
    <_>
      <rect>
        9 19 1 3</rect></_></features></cascade>
</opencv_storage>
