<?xml version="1.0"?>
<opencv_storage>
<cascade>
  <stageType>BOOST</stageType>
  <featureType>HAAR</featureType>
  <height>30</height>
  <width>15</width>
  <stageParams>
    <boostType>GAB</boostType>
    <minHitRate>9.9500000476837158e-01</minHitRate>
    <maxFalseAlarm>5.0000000000000000e-01</maxFalseAlarm>
    <weightTrimRate>9.4999999999999996e-01</weightTrimRate>
    <maxDepth>1</maxDepth>
    <maxWeakCount>100</maxWeakCount></stageParams>
  <featureParams>
    <maxCatCount>0</maxCatCount>
    <featSize>1</featSize>
    <mode>BASIC</mode></featureParams>
  <stageNum>18</stageNum>
  <stages>
    <!-- stage 0 -->
    <_>
      <maxWeakCount>3</maxWeakCount>
      <stageThreshold>-7.7683782577514648e-01</stageThreshold>
      <weakClassifiers>
        <_>
          <internalNodes>
            0 -1 0 -3.3210998773574829e-01</internalNodes>
          <leafValues>
            9.3370163440704346e-01 -7.7168947458267212e-01</leafValues></_>
        <_>
          <internalNodes>
            0 -1 10 -5.1086857914924622e-02</internalNodes>
          <leafValues>
            8.5491985082626343e-01 -5.4998350143432617e-01</leafValues></_>
        <_>
          <internalNodes>
            0 -1 61 -1.8589560568216257e-05</internalNodes>
          <leafValues>
            -9.6548253297805786e-01 5.4483515024185181e-01</leafValues></_></weakClassifiers></_>
    <!-- stage 1 -->
    <_>
      <maxWeakCount>2</maxWeakCount>
      <stageThreshold>-2.1283398568630219e-01</stageThreshold>
      <weakClassifiers>
        <_>
          <internalNodes>
            0 -1 6 -2.0881238579750061e-01</internalNodes>
          <leafValues>
            8.8421052694320679e-01 -8.0000001192092896e-01</leafValues></_>
        <_>
          <internalNodes>
            0 -1 49 -1.3281282735988498e-03</internalNodes>
          <leafValues>
            5.8716601133346558e-01 -9.2163491249084473e-01</leafValues></_></weakClassifiers></_>
    <!-- stage 2 -->
    <_>
      <maxWeakCount>4</maxWeakCount>
      <stageThreshold>-9.0484601259231567e-01</stageThreshold>
      <weakClassifiers>
        <_>
          <internalNodes>
            0 -1 9 -5.5002655833959579e-02</internalNodes>
          <leafValues>
            7.7464789152145386e-01 -8.8235294818878174e-01</leafValues></_>
        <_>
          <internalNodes>
            0 -1 14 -2.1504540927708149e-03</internalNodes>
          <leafValues>
            5.5592340230941772e-01 -7.9080802202224731e-01</leafValues></_>
        <_>
          <internalNodes>
            0 -1 60 6.9673906546086073e-04</internalNodes>
          <leafValues>
            4.3343928456306458e-01 -9.0000349283218384e-01</leafValues></_>
        <_>
          <internalNodes>
            0 -1 43 -2.8688309248536825e-04</internalNodes>
          <leafValues>
            -9.6251118183135986e-01 3.3487567305564880e-01</leafValues></_></weakClassifiers></_>
    <!-- stage 3 -->
    <_>
      <maxWeakCount>2</maxWeakCount>
      <stageThreshold>-1.1568523943424225e-01</stageThreshold>
      <weakClassifiers>
        <_>
          <internalNodes>
            0 -1 2 -4.8163950443267822e-01</internalNodes>
          <leafValues>
            8.8957053422927856e-01 -6.1181432008743286e-01</leafValues></_>
        <_>
          <internalNodes>
            0 -1 48 -5.5810261983424425e-04</internalNodes>
          <leafValues>
            -1. 4.9612909555435181e-01</leafValues></_></weakClassifiers></_>
    <!-- stage 4 -->
    <_>
      <maxWeakCount>4</maxWeakCount>
      <stageThreshold>-5.7488262653350830e-01</stageThreshold>
      <weakClassifiers>
        <_>
          <internalNodes>
            0 -1 4 -4.7443312406539917e-01</internalNodes>
          <leafValues>
            9.3150687217712402e-01 -5.3543305397033691e-01</leafValues></_>
        <_>
          <internalNodes>
            0 -1 50 6.2407215591520071e-04</internalNodes>
          <leafValues>
            5.8954948186874390e-01 -8.5880613327026367e-01</leafValues></_>
        <_>
          <internalNodes>
            0 -1 23 -2.7584147755987942e-04</internalNodes>
          <leafValues>
            4.2482557892799377e-01 -9.4174087047576904e-01</leafValues></_>
        <_>
          <internalNodes>
            0 -1 22 3.0014110961928964e-04</internalNodes>
          <leafValues>
            3.9453098177909851e-01 -8.7627917528152466e-01</leafValues></_></weakClassifiers></_>
    <!-- stage 5 -->
    <_>
      <maxWeakCount>4</maxWeakCount>
      <stageThreshold>-4.3187296390533447e-01</stageThreshold>
      <weakClassifiers>
        <_>
          <internalNodes>
            0 -1 17 1.1096113361418247e-02</internalNodes>
          <leafValues>
            -6.8159204721450806e-01 6.8844223022460938e-01</leafValues></_>
        <_>
          <internalNodes>
            0 -1 33 -3.2897107303142548e-03</internalNodes>
          <leafValues>
            7.6658302545547485e-01 -5.6018894910812378e-01</leafValues></_>
        <_>
          <internalNodes>
            0 -1 51 -5.2439654245972633e-04</internalNodes>
          <leafValues>
            -9.4018232822418213e-01 4.8777803778648376e-01</leafValues></_>
        <_>
          <internalNodes>
            0 -1 56 -1.4171137008816004e-03</internalNodes>
          <leafValues>
            4.2331832647323608e-01 -9.9452143907546997e-01</leafValues></_></weakClassifiers></_>
    <!-- stage 6 -->
    <_>
      <maxWeakCount>3</maxWeakCount>
      <stageThreshold>-1.0463045835494995e+00</stageThreshold>
      <weakClassifiers>
        <_>
          <internalNodes>
            0 -1 3 -4.8656857013702393e-01</internalNodes>
          <leafValues>
            8.1366461515426636e-01 -5.4811716079711914e-01</leafValues></_>
        <_>
          <internalNodes>
            0 -1 51 4.7101400559768081e-04</internalNodes>
          <leafValues>
            4.4181141257286072e-01 -9.8894333839416504e-01</leafValues></_>
        <_>
          <internalNodes>
            0 -1 41 -1.3278941623866558e-03</internalNodes>
          <leafValues>
            -9.3999880552291870e-01 3.1128570437431335e-01</leafValues></_></weakClassifiers></_>
    <!-- stage 7 -->
    <_>
      <maxWeakCount>3</maxWeakCount>
      <stageThreshold>-6.3700377941131592e-02</stageThreshold>
      <weakClassifiers>
        <_>
          <internalNodes>
            0 -1 12 -6.4272359013557434e-03</internalNodes>
          <leafValues>
            6.8932038545608521e-01 -7.3195874691009521e-01</leafValues></_>
        <_>
          <internalNodes>
            0 -1 54 2.2493299911729991e-04</internalNodes>
          <leafValues>
            3.6907598376274109e-01 -9.8747277259826660e-01</leafValues></_>
        <_>
          <internalNodes>
            0 -1 59 5.6328641949221492e-04</internalNodes>
          <leafValues>
            2.9918241500854492e-01 -9.9020260572433472e-01</leafValues></_></weakClassifiers></_>
    <!-- stage 8 -->
    <_>
      <maxWeakCount>4</maxWeakCount>
      <stageThreshold>-7.2415196895599365e-01</stageThreshold>
      <weakClassifiers>
        <_>
          <internalNodes>
            0 -1 57 -6.6214252728968859e-04</internalNodes>
          <leafValues>
            -9.6363633871078491e-01 3.6551722884178162e-01</leafValues></_>
        <_>
          <internalNodes>
            0 -1 27 1.4775397721678019e-03</internalNodes>
          <leafValues>
            3.2984974980354309e-01 -9.7331744432449341e-01</leafValues></_>
        <_>
          <internalNodes>
            0 -1 5 3.1507991254329681e-02</internalNodes>
          <leafValues>
            -5.8025145530700684e-01 5.6135600805282593e-01</leafValues></_>
        <_>
          <internalNodes>
            0 -1 18 7.5540174730122089e-03</internalNodes>
          <leafValues>
            -6.5172129869461060e-01 5.3433454036712646e-01</leafValues></_></weakClassifiers></_>
    <!-- stage 9 -->
    <_>
      <maxWeakCount>4</maxWeakCount>
      <stageThreshold>-6.2458199262619019e-01</stageThreshold>
      <weakClassifiers>
        <_>
          <internalNodes>
            0 -1 36 -1.4007670106366277e-03</internalNodes>
          <leafValues>
            4.2647057771682739e-01 -9.0625000000000000e-01</leafValues></_>
        <_>
          <internalNodes>
            0 -1 7 -2.1059329807758331e-01</internalNodes>
          <leafValues>
            8.2939940690994263e-01 -4.7318762540817261e-01</leafValues></_>
        <_>
          <internalNodes>
            0 -1 38 -1.4455786440521479e-03</internalNodes>
          <leafValues>
            -1. 4.3646812438964844e-01</leafValues></_>
        <_>
          <internalNodes>
            0 -1 37 4.6384998131543398e-04</internalNodes>
          <leafValues>
            3.1838750839233398e-01 -1.</leafValues></_></weakClassifiers></_>
    <!-- stage 10 -->
    <_>
      <maxWeakCount>3</maxWeakCount>
      <stageThreshold>-2.5530144572257996e-01</stageThreshold>
      <weakClassifiers>
        <_>
          <internalNodes>
            0 -1 13 -2.7020308189094067e-03</internalNodes>
          <leafValues>
            4.3529412150382996e-01 -7.6551723480224609e-01</leafValues></_>
        <_>
          <internalNodes>
            0 -1 30 3.1294900691136718e-04</internalNodes>
          <leafValues>
            2.8379616141319275e-01 -9.7003090381622314e-01</leafValues></_>
        <_>
          <internalNodes>
            0 -1 46 1.9061217244598083e-05</internalNodes>
          <leafValues>
            -9.7439169883728027e-01 3.1040567159652710e-01</leafValues></_></weakClassifiers></_>
    <!-- stage 11 -->
    <_>
      <maxWeakCount>4</maxWeakCount>
      <stageThreshold>-5.6148284673690796e-01</stageThreshold>
      <weakClassifiers>
        <_>
          <internalNodes>
            0 -1 32 1.0617597727105021e-03</internalNodes>
          <leafValues>
            -6.1497324705123901e-01 5.3990608453750610e-01</leafValues></_>
        <_>
          <internalNodes>
            0 -1 55 -1.2654964812099934e-03</internalNodes>
          <leafValues>
            4.9791628122329712e-01 -6.9632953405380249e-01</leafValues></_>
        <_>
          <internalNodes>
            0 -1 40 5.1432769396342337e-05</internalNodes>
          <leafValues>
            3.6166274547576904e-01 -9.9082213640213013e-01</leafValues></_>
        <_>
          <internalNodes>
            0 -1 20 -7.6023465953767300e-04</internalNodes>
          <leafValues>
            4.4811886548995972e-01 -8.0608862638473511e-01</leafValues></_></weakClassifiers></_>
    <!-- stage 12 -->
    <_>
      <maxWeakCount>4</maxWeakCount>
      <stageThreshold>-8.2014858722686768e-01</stageThreshold>
      <weakClassifiers>
        <_>
          <internalNodes>
            0 -1 24 -1.6996607882902026e-05</internalNodes>
          <leafValues>
            4.7656250000000000e-01 -8.4722220897674561e-01</leafValues></_>
        <_>
          <internalNodes>
            0 -1 11 -9.8391389474272728e-04</internalNodes>
          <leafValues>
            4.7929450869560242e-01 -7.0834481716156006e-01</leafValues></_>
        <_>
          <internalNodes>
            0 -1 43 -4.8248137318296358e-05</internalNodes>
          <leafValues>
            -8.0980747938156128e-01 4.1272369027137756e-01</leafValues></_>
        <_>
          <internalNodes>
            0 -1 39 1.0216576047241688e-03</internalNodes>
          <leafValues>
            3.2269477844238281e-01 -9.6051055192947388e-01</leafValues></_></weakClassifiers></_>
    <!-- stage 13 -->
    <_>
      <maxWeakCount>4</maxWeakCount>
      <stageThreshold>-8.3753985166549683e-01</stageThreshold>
      <weakClassifiers>
        <_>
          <internalNodes>
            0 -1 26 -1.7212852835655212e-02</internalNodes>
          <leafValues>
            -7.8231292963027954e-01 4.5454546809196472e-01</leafValues></_>
        <_>
          <internalNodes>
            0 -1 34 -3.1833298271521926e-04</internalNodes>
          <leafValues>
            4.1668981313705444e-01 -7.7054458856582642e-01</leafValues></_>
        <_>
          <internalNodes>
            0 -1 15 -2.3461910313926637e-04</internalNodes>
          <leafValues>
            3.1327944993972778e-01 -9.5619803667068481e-01</leafValues></_>
        <_>
          <internalNodes>
            0 -1 44 -5.4238783195614815e-03</internalNodes>
          <leafValues>
            4.0203818678855896e-01 -7.0342850685119629e-01</leafValues></_></weakClassifiers></_>
    <!-- stage 14 -->
    <_>
      <maxWeakCount>6</maxWeakCount>
      <stageThreshold>-9.9503302574157715e-01</stageThreshold>
      <weakClassifiers>
        <_>
          <internalNodes>
            0 -1 35 -8.8842643890529871e-04</internalNodes>
          <leafValues>
            4.3902438879013062e-01 -7.0129871368408203e-01</leafValues></_>
        <_>
          <internalNodes>
            0 -1 21 -1.5543760964646935e-03</internalNodes>
          <leafValues>
            -8.5573089122772217e-01 3.5630354285240173e-01</leafValues></_>
        <_>
          <internalNodes>
            0 -1 52 -2.9898845241405070e-04</internalNodes>
          <leafValues>
            -8.5149681568145752e-01 3.5662323236465454e-01</leafValues></_>
        <_>
          <internalNodes>
            0 -1 53 1.8787023145705462e-03</internalNodes>
          <leafValues>
            -5.2726656198501587e-01 5.5776059627532959e-01</leafValues></_>
        <_>
          <internalNodes>
            0 -1 1 -1.5616974560543895e-03</internalNodes>
          <leafValues>
            4.8921397328376770e-01 -5.9770911931991577e-01</leafValues></_>
        <_>
          <internalNodes>
            0 -1 45 -6.3255475834012032e-04</internalNodes>
          <leafValues>
            -9.8715472221374512e-01 2.3951151967048645e-01</leafValues></_></weakClassifiers></_>
    <!-- stage 15 -->
    <_>
      <maxWeakCount>4</maxWeakCount>
      <stageThreshold>-3.0883148312568665e-01</stageThreshold>
      <weakClassifiers>
        <_>
          <internalNodes>
            0 -1 53 1.8787023145705462e-03</internalNodes>
          <leafValues>
            -5.2380955219268799e-01 7.1597635746002197e-01</leafValues></_>
        <_>
          <internalNodes>
            0 -1 47 3.9874515496194363e-03</internalNodes>
          <leafValues>
            4.5080673694610596e-01 -8.5158151388168335e-01</leafValues></_>
        <_>
          <internalNodes>
            0 -1 25 -1.4166487380862236e-03</internalNodes>
          <leafValues>
            4.2609998583793640e-01 -7.4917501211166382e-01</leafValues></_>
        <_>
          <internalNodes>
            0 -1 58 -1.8734307959675789e-03</internalNodes>
          <leafValues>
            6.4045953750610352e-01 -5.5803537368774414e-01</leafValues></_></weakClassifiers></_>
    <!-- stage 16 -->
    <_>
      <maxWeakCount>5</maxWeakCount>
      <stageThreshold>-8.9238274097442627e-01</stageThreshold>
      <weakClassifiers>
        <_>
          <internalNodes>
            0 -1 31 -5.0069717690348625e-03</internalNodes>
          <leafValues>
            7.8723406791687012e-01 -6.9811320304870605e-01</leafValues></_>
        <_>
          <internalNodes>
            0 -1 29 5.0060258217854425e-05</internalNodes>
          <leafValues>
            4.8817849159240723e-01 -9.8937863111495972e-01</leafValues></_>
        <_>
          <internalNodes>
            0 -1 42 1.3938328265794553e-05</internalNodes>
          <leafValues>
            -5.7648199796676636e-01 9.3839359283447266e-01</leafValues></_>
        <_>
          <internalNodes>
            0 -1 16 -1.5135981811909005e-05</internalNodes>
          <leafValues>
            7.5916373729705811e-01 -5.9678119421005249e-01</leafValues></_>
        <_>
          <internalNodes>
            0 -1 28 -1.6129564028233290e-04</internalNodes>
          <leafValues>
            -9.0980184078216553e-01 4.9081519246101379e-01</leafValues></_></weakClassifiers></_>
    <!-- stage 17 -->
    <_>
      <maxWeakCount>2</maxWeakCount>
      <stageThreshold>-1.4313818514347076e-01</stageThreshold>
      <weakClassifiers>
        <_>
          <internalNodes>
            0 -1 19 1.5515222912654281e-04</internalNodes>
          <leafValues>
            -8.6046510934829712e-01 1.</leafValues></_>
        <_>
          <internalNodes>
            0 -1 8 8.1235982477664948e-02</internalNodes>
          <leafValues>
            7.1732693910598755e-01 -9.7848981618881226e-01</leafValues></_></weakClassifiers></_></stages>
  <features>
    <_>
      <rects>
        <_>
          1 1 12 26 -1.</_>
        <_>
          5 1 4 26 3.</_></rects>
      <tilted>0</tilted></_>
    <_>
      <rects>
        <_>
          1 1 10 2 -1.</_>
        <_>
          1 1 5 1 2.</_>
        <_>
          6 2 5 1 2.</_></rects>
      <tilted>0</tilted></_>
    <_>
      <rects>
        <_>
          1 3 12 25 -1.</_>
        <_>
          5 3 4 25 3.</_></rects>
      <tilted>0</tilted></_>
    <_>
      <rects>
        <_>
          1 4 12 24 -1.</_>
        <_>
          5 4 4 24 3.</_></rects>
      <tilted>0</tilted></_>
    <_>
      <rects>
        <_>
          2 6 12 22 -1.</_>
        <_>
          6 6 4 22 3.</_></rects>
      <tilted>0</tilted></_>
    <_>
      <rects>
        <_>
          2 24 10 6 -1.</_>
        <_>
          2 27 10 3 2.</_></rects>
      <tilted>0</tilted></_>
    <_>
      <rects>
        <_>
          3 3 9 26 -1.</_>
        <_>
          6 3 3 26 3.</_></rects>
      <tilted>0</tilted></_>
    <_>
      <rects>
        <_>
          3 7 9 11 -1.</_>
        <_>
          6 7 3 11 3.</_></rects>
      <tilted>0</tilted></_>
    <_>
      <rects>
        <_>
          4 4 9 14 -1.</_>
        <_>
          4 11 9 7 2.</_></rects>
      <tilted>0</tilted></_>
    <_>
      <rects>
        <_>
          5 1 6 27 -1.</_>
        <_>
          7 1 2 27 3.</_></rects>
      <tilted>0</tilted></_>
    <_>
      <rects>
        <_>
          5 2 6 17 -1.</_>
        <_>
          7 2 2 17 3.</_></rects>
      <tilted>0</tilted></_>
    <_>
      <rects>
        <_>
          5 2 3 2 -1.</_>
        <_>
          5 3 3 1 2.</_></rects>
      <tilted>0</tilted></_>
    <_>
      <rects>
        <_>
          5 9 2 8 -1.</_>
        <_>
          6 9 1 8 2.</_></rects>
      <tilted>0</tilted></_>
    <_>
      <rects>
        <_>
          5 12 4 3 -1.</_>
        <_>
          7 12 2 3 2.</_></rects>
      <tilted>0</tilted></_>
    <_>
      <rects>
        <_>
          5 14 3 15 -1.</_>
        <_>
          6 14 1 15 3.</_></rects>
      <tilted>0</tilted></_>
    <_>
      <rects>
        <_>
          5 18 5 9 -1.</_>
        <_>
          5 21 5 3 3.</_></rects>
      <tilted>0</tilted></_>
    <_>
      <rects>
        <_>
          5 26 2 2 -1.</_>
        <_>
          5 26 1 1 2.</_>
        <_>
          6 27 1 1 2.</_></rects>
      <tilted>0</tilted></_>
    <_>
      <rects>
        <_>
          5 26 6 4 -1.</_>
        <_>
          5 28 6 2 2.</_></rects>
      <tilted>0</tilted></_>
    <_>
      <rects>
        <_>
          6 0 8 4 -1.</_>
        <_>
          6 0 4 2 2.</_>
        <_>
          10 2 4 2 2.</_></rects>
      <tilted>0</tilted></_>
    <_>
      <rects>
        <_>
          6 1 8 6 -1.</_>
        <_>
          10 1 4 6 2.</_></rects>
      <tilted>0</tilted></_>
    <_>
      <rects>
        <_>
          6 3 3 6 -1.</_>
        <_>
          6 5 3 2 3.</_></rects>
      <tilted>0</tilted></_>
    <_>
      <rects>
        <_>
          6 3 3 15 -1.</_>
        <_>
          6 8 3 5 3.</_></rects>
      <tilted>0</tilted></_>
    <_>
      <rects>
        <_>
          6 6 2 6 -1.</_>
        <_>
          7 6 1 6 2.</_></rects>
      <tilted>0</tilted></_>
    <_>
      <rects>
        <_>
          6 8 3 6 -1.</_>
        <_>
          6 11 3 3 2.</_></rects>
      <tilted>0</tilted></_>
    <_>
      <rects>
        <_>
          6 8 3 20 -1.</_>
        <_>
          6 18 3 10 2.</_></rects>
      <tilted>0</tilted></_>
    <_>
      <rects>
        <_>
          6 9 2 20 -1.</_>
        <_>
          7 9 1 20 2.</_></rects>
      <tilted>0</tilted></_>
    <_>
      <rects>
        <_>
          6 9 3 16 -1.</_>
        <_>
          6 17 3 8 2.</_></rects>
      <tilted>0</tilted></_>
    <_>
      <rects>
        <_>
          6 10 2 16 -1.</_>
        <_>
          6 18 2 8 2.</_></rects>
      <tilted>0</tilted></_>
    <_>
      <rects>
        <_>
          6 15 2 2 -1.</_>
        <_>
          6 15 1 1 2.</_>
        <_>
          7 16 1 1 2.</_></rects>
      <tilted>0</tilted></_>
    <_>
      <rects>
        <_>
          6 15 3 2 -1.</_>
        <_>
          7 15 1 2 3.</_></rects>
      <tilted>0</tilted></_>
    <_>
      <rects>
        <_>
          6 17 2 8 -1.</_>
        <_>
          6 17 1 4 2.</_>
        <_>
          7 21 1 4 2.</_></rects>
      <tilted>0</tilted></_>
    <_>
      <rects>
        <_>
          6 24 5 6 -1.</_>
        <_>
          6 26 5 2 3.</_></rects>
      <tilted>0</tilted></_>
    <_>
      <rects>
        <_>
          6 28 2 2 -1.</_>
        <_>
          6 29 2 1 2.</_></rects>
      <tilted>0</tilted></_>
    <_>
      <rects>
        <_>
          7 0 1 4 -1.</_>
        <_>
          7 2 1 2 2.</_></rects>
      <tilted>0</tilted></_>
    <_>
      <rects>
        <_>
          7 1 1 6 -1.</_>
        <_>
          7 3 1 2 3.</_></rects>
      <tilted>0</tilted></_>
    <_>
      <rects>
        <_>
          7 1 1 15 -1.</_>
        <_>
          7 6 1 5 3.</_></rects>
      <tilted>0</tilted></_>
    <_>
      <rects>
        <_>
          7 1 2 9 -1.</_>
        <_>
          7 4 2 3 3.</_></rects>
      <tilted>0</tilted></_>
    <_>
      <rects>
        <_>
          7 3 1 10 -1.</_>
        <_>
          7 8 1 5 2.</_></rects>
      <tilted>0</tilted></_>
    <_>
      <rects>
        <_>
          7 4 1 18 -1.</_>
        <_>
          7 10 1 6 3.</_></rects>
      <tilted>0</tilted></_>
    <_>
      <rects>
        <_>
          7 4 2 24 -1.</_>
        <_>
          7 16 2 12 2.</_></rects>
      <tilted>0</tilted></_>
    <_>
      <rects>
        <_>
          7 5 1 10 -1.</_>
        <_>
          7 10 1 5 2.</_></rects>
      <tilted>0</tilted></_>
    <_>
      <rects>
        <_>
          7 5 1 18 -1.</_>
        <_>
          7 11 1 6 3.</_></rects>
      <tilted>0</tilted></_>
    <_>
      <rects>
        <_>
          7 7 1 3 -1.</_>
        <_>
          7 8 1 1 3.</_></rects>
      <tilted>0</tilted></_>
    <_>
      <rects>
        <_>
          7 9 1 12 -1.</_>
        <_>
          7 13 1 4 3.</_></rects>
      <tilted>0</tilted></_>
    <_>
      <rects>
        <_>
          7 10 3 7 -1.</_>
        <_>
          8 10 1 7 3.</_></rects>
      <tilted>0</tilted></_>
    <_>
      <rects>
        <_>
          7 10 2 17 -1.</_>
        <_>
          8 10 1 17 2.</_></rects>
      <tilted>0</tilted></_>
    <_>
      <rects>
        <_>
          7 11 1 18 -1.</_>
        <_>
          7 20 1 9 2.</_></rects>
      <tilted>0</tilted></_>
    <_>
      <rects>
        <_>
          7 11 2 19 -1.</_>
        <_>
          8 11 1 19 2.</_></rects>
      <tilted>0</tilted></_>
    <_>
      <rects>
        <_>
          7 13 2 5 -1.</_>
        <_>
          8 13 1 5 2.</_></rects>
      <tilted>0</tilted></_>
    <_>
      <rects>
        <_>
          7 13 3 6 -1.</_>
        <_>
          8 13 1 6 3.</_></rects>
      <tilted>0</tilted></_>
    <_>
      <rects>
        <_>
          7 14 2 4 -1.</_>
        <_>
          8 14 1 4 2.</_></rects>
      <tilted>0</tilted></_>
    <_>
      <rects>
        <_>
          7 14 2 8 -1.</_>
        <_>
          7 14 1 4 2.</_>
        <_>
          8 18 1 4 2.</_></rects>
      <tilted>0</tilted></_>
    <_>
      <rects>
        <_>
          7 15 2 8 -1.</_>
        <_>
          7 15 1 4 2.</_>
        <_>
          8 19 1 4 2.</_></rects>
      <tilted>0</tilted></_>
    <_>
      <rects>
        <_>
          7 28 2 2 -1.</_>
        <_>
          7 29 2 1 2.</_></rects>
      <tilted>0</tilted></_>
    <_>
      <rects>
        <_>
          8 9 1 6 -1.</_>
        <_>
          8 11 1 2 3.</_></rects>
      <tilted>0</tilted></_>
    <_>
      <rects>
        <_>
          8 10 2 12 -1.</_>
        <_>
          8 10 1 6 2.</_>
        <_>
          9 16 1 6 2.</_></rects>
      <tilted>0</tilted></_>
    <_>
      <rects>
        <_>
          8 12 2 10 -1.</_>
        <_>
          8 17 2 5 2.</_></rects>
      <tilted>0</tilted></_>
    <_>
      <rects>
        <_>
          8 13 1 14 -1.</_>
        <_>
          8 20 1 7 2.</_></rects>
      <tilted>0</tilted></_>
    <_>
      <rects>
        <_>
          8 13 3 9 -1.</_>
        <_>
          9 13 1 9 3.</_></rects>
      <tilted>0</tilted></_>
    <_>
      <rects>
        <_>
          8 21 2 4 -1.</_>
        <_>
          8 21 1 2 2.</_>
        <_>
          9 23 1 2 2.</_></rects>
      <tilted>0</tilted></_>
    <_>
      <rects>
        <_>
          9 14 1 12 -1.</_>
        <_>
          9 20 1 6 2.</_></rects>
      <tilted>0</tilted></_>
    <_>
      <rects>
        <_>
          9 20 1 6 -1.</_>
        <_>
          9 23 1 3 2.</_></rects>
      <tilted>0</tilted></_></features></cascade>
</opencv_storage>
