<?xml version="1.0"?>
<opencv_storage>
<cascade>
  <stageType>BOOST</stageType>
  <featureType>HAAR</featureType>
  <height>40</height>
  <width>14</width>
  <stageParams>
    <boostType>GAB</boostType>
    <minHitRate>9.9500000476837158e-01</minHitRate>
    <maxFalseAlarm>5.0000000000000000e-01</maxFalseAlarm>
    <weightTrimRate>9.4999999999999996e-01</weightTrimRate>
    <maxDepth>1</maxDepth>
    <maxWeakCount>100</maxWeakCount></stageParams>
  <featureParams>
    <maxCatCount>0</maxCatCount>
    <featSize>1</featSize>
    <mode>BASIC</mode></featureParams>
  <stageNum>18</stageNum>
  <stages>
    <!-- stage 0 -->
    <_>
      <maxWeakCount>3</maxWeakCount>
      <stageThreshold>-6.7951822280883789e-01</stageThreshold>
      <weakClassifiers>
        <_>
          <internalNodes>
            0 -1 16 -7.8327104449272156e-02</internalNodes>
          <leafValues>
            9.5604395866394043e-01 -7.9816514253616333e-01</leafValues></_>
        <_>
          <internalNodes>
            0 -1 42 -9.3868002295494080e-03</internalNodes>
          <leafValues>
            7.8362846374511719e-01 -7.0303410291671753e-01</leafValues></_>
        <_>
          <internalNodes>
            0 -1 17 -2.4203689768910408e-02</internalNodes>
          <leafValues>
            8.2168096303939819e-01 -6.0012704133987427e-01</leafValues></_></weakClassifiers></_>
    <!-- stage 1 -->
    <_>
      <maxWeakCount>2</maxWeakCount>
      <stageThreshold>-2.8882050514221191e-01</stageThreshold>
      <weakClassifiers>
        <_>
          <internalNodes>
            0 -1 18 -7.1208022534847260e-02</internalNodes>
          <leafValues>
            9.3103450536727905e-01 -7.1681416034698486e-01</leafValues></_>
        <_>
          <internalNodes>
            0 -1 53 -7.7954767039045691e-04</internalNodes>
          <leafValues>
            -9.4690549373626709e-01 4.2799365520477295e-01</leafValues></_></weakClassifiers></_>
    <!-- stage 2 -->
    <_>
      <maxWeakCount>2</maxWeakCount>
      <stageThreshold>-2.0391726493835449e-01</stageThreshold>
      <weakClassifiers>
        <_>
          <internalNodes>
            0 -1 4 -1.8949984014034271e-01</internalNodes>
          <leafValues>
            8.4946238994598389e-01 -7.3831772804260254e-01</leafValues></_>
        <_>
          <internalNodes>
            0 -1 51 5.2324584685266018e-03</internalNodes>
          <leafValues>
            5.3440046310424805e-01 -9.7930270433425903e-01</leafValues></_></weakClassifiers></_>
    <!-- stage 3 -->
    <_>
      <maxWeakCount>4</maxWeakCount>
      <stageThreshold>-3.5990008711814880e-01</stageThreshold>
      <weakClassifiers>
        <_>
          <internalNodes>
            0 -1 9 -2.1176595240831375e-02</internalNodes>
          <leafValues>
            6.2264150381088257e-01 -7.0212763547897339e-01</leafValues></_>
        <_>
          <internalNodes>
            0 -1 50 -2.3229192011058331e-03</internalNodes>
          <leafValues>
            5.7221573591232300e-01 -6.6736704111099243e-01</leafValues></_>
        <_>
          <internalNodes>
            0 -1 58 -7.0848478935658932e-04</internalNodes>
          <leafValues>
            4.9427741765975952e-01 -6.6700476408004761e-01</leafValues></_>
        <_>
          <internalNodes>
            0 -1 15 -2.3232916646520607e-05</internalNodes>
          <leafValues>
            5.1531720161437988e-01 -6.7829620838165283e-01</leafValues></_></weakClassifiers></_>
    <!-- stage 4 -->
    <_>
      <maxWeakCount>2</maxWeakCount>
      <stageThreshold>-1.5640644729137421e-01</stageThreshold>
      <weakClassifiers>
        <_>
          <internalNodes>
            0 -1 2 -4.0061053633689880e-01</internalNodes>
          <leafValues>
            8.7654322385787964e-01 -5.9663867950439453e-01</leafValues></_>
        <_>
          <internalNodes>
            0 -1 52 -3.3731947187334299e-03</internalNodes>
          <leafValues>
            -1. 4.4023221731185913e-01</leafValues></_></weakClassifiers></_>
    <!-- stage 5 -->
    <_>
      <maxWeakCount>2</maxWeakCount>
      <stageThreshold>-2.3131486773490906e-01</stageThreshold>
      <weakClassifiers>
        <_>
          <internalNodes>
            0 -1 20 7.0610549300909042e-03</internalNodes>
          <leafValues>
            -6.5048545598983765e-01 6.9072163105010986e-01</leafValues></_>
        <_>
          <internalNodes>
            0 -1 46 -5.0149217713624239e-04</internalNodes>
          <leafValues>
            -1. 4.1917055845260620e-01</leafValues></_></weakClassifiers></_>
    <!-- stage 6 -->
    <_>
      <maxWeakCount>5</maxWeakCount>
      <stageThreshold>-5.2977681159973145e-01</stageThreshold>
      <weakClassifiers>
        <_>
          <internalNodes>
            0 -1 33 7.8463148383889347e-05</internalNodes>
          <leafValues>
            3.8461539149284363e-01 -9.6491229534149170e-01</leafValues></_>
        <_>
          <internalNodes>
            0 -1 67 1.1981295421719551e-02</internalNodes>
          <leafValues>
            -5.3382641077041626e-01 8.5817116498947144e-01</leafValues></_>
        <_>
          <internalNodes>
            0 -1 37 -8.7991859763860703e-03</internalNodes>
          <leafValues>
            -9.2569690942764282e-01 3.9355528354644775e-01</leafValues></_>
        <_>
          <internalNodes>
            0 -1 35 -2.0062755793333054e-03</internalNodes>
          <leafValues>
            -1. 3.0428072810173035e-01</leafValues></_>
        <_>
          <internalNodes>
            0 -1 47 1.2115048011764884e-03</internalNodes>
          <leafValues>
            2.7112591266632080e-01 -9.3670427799224854e-01</leafValues></_></weakClassifiers></_>
    <!-- stage 7 -->
    <_>
      <maxWeakCount>6</maxWeakCount>
      <stageThreshold>-1.1200432777404785e+00</stageThreshold>
      <weakClassifiers>
        <_>
          <internalNodes>
            0 -1 20 7.4252560734748840e-03</internalNodes>
          <leafValues>
            -6.5714287757873535e-01 7.2631579637527466e-01</leafValues></_>
        <_>
          <internalNodes>
            0 -1 43 -2.5944914668798447e-03</internalNodes>
          <leafValues>
            3.8553893566131592e-01 -8.0807483196258545e-01</leafValues></_>
        <_>
          <internalNodes>
            0 -1 40 -1.7627773340791464e-03</internalNodes>
          <leafValues>
            -9.6368104219436646e-01 3.3367177844047546e-01</leafValues></_>
        <_>
          <internalNodes>
            0 -1 39 1.2545206584036350e-02</internalNodes>
          <leafValues>
            3.0940246582031250e-01 -8.5975617170333862e-01</leafValues></_>
        <_>
          <internalNodes>
            0 -1 28 -7.6345656998455524e-04</internalNodes>
          <leafValues>
            5.4984426498413086e-01 -5.6788122653961182e-01</leafValues></_>
        <_>
          <internalNodes>
            0 -1 49 5.2474974654614925e-04</internalNodes>
          <leafValues>
            2.6998141407966614e-01 -1.</leafValues></_></weakClassifiers></_>
    <!-- stage 8 -->
    <_>
      <maxWeakCount>4</maxWeakCount>
      <stageThreshold>-2.7085480093955994e-01</stageThreshold>
      <weakClassifiers>
        <_>
          <internalNodes>
            0 -1 19 -5.0858024507761002e-02</internalNodes>
          <leafValues>
            9.0322577953338623e-01 -4.0579709410667419e-01</leafValues></_>
        <_>
          <internalNodes>
            0 -1 23 -2.2292414214462042e-03</internalNodes>
          <leafValues>
            6.0084962844848633e-01 -5.4891383647918701e-01</leafValues></_>
        <_>
          <internalNodes>
            0 -1 48 -1.2213673908263445e-03</internalNodes>
          <leafValues>
            -9.8386806249618530e-01 2.9204598069190979e-01</leafValues></_>
        <_>
          <internalNodes>
            0 -1 41 5.8044912293553352e-04</internalNodes>
          <leafValues>
            -7.0656013488769531e-01 3.9181014895439148e-01</leafValues></_></weakClassifiers></_>
    <!-- stage 9 -->
    <_>
      <maxWeakCount>5</maxWeakCount>
      <stageThreshold>-8.5297697782516479e-01</stageThreshold>
      <weakClassifiers>
        <_>
          <internalNodes>
            0 -1 1 -4.8986701294779778e-03</internalNodes>
          <leafValues>
            6.9767439365386963e-01 -5.2631580829620361e-01</leafValues></_>
        <_>
          <internalNodes>
            0 -1 22 -9.7032613120973110e-04</internalNodes>
          <leafValues>
            5.2369803190231323e-01 -5.7807254791259766e-01</leafValues></_>
        <_>
          <internalNodes>
            0 -1 44 -8.0744060687720776e-04</internalNodes>
          <leafValues>
            3.8750535249710083e-01 -6.8482023477554321e-01</leafValues></_>
        <_>
          <internalNodes>
            0 -1 29 5.8922905009239912e-04</internalNodes>
          <leafValues>
            4.4786414504051208e-01 -7.0024424791336060e-01</leafValues></_>
        <_>
          <internalNodes>
            0 -1 64 -4.1234830860048532e-04</internalNodes>
          <leafValues>
            5.3838872909545898e-01 -5.8395820856094360e-01</leafValues></_></weakClassifiers></_>
    <!-- stage 10 -->
    <_>
      <maxWeakCount>5</maxWeakCount>
      <stageThreshold>-5.9752005338668823e-01</stageThreshold>
      <weakClassifiers>
        <_>
          <internalNodes>
            0 -1 8 -2.1619772911071777e-01</internalNodes>
          <leafValues>
            8.1081080436706543e-01 -4.7619047760963440e-01</leafValues></_>
        <_>
          <internalNodes>
            0 -1 27 -1.1210283264517784e-03</internalNodes>
          <leafValues>
            4.2843669652938843e-01 -7.1911215782165527e-01</leafValues></_>
        <_>
          <internalNodes>
            0 -1 3 -3.6406025756150484e-03</internalNodes>
          <leafValues>
            7.5077641010284424e-01 -3.3504557609558105e-01</leafValues></_>
        <_>
          <internalNodes>
            0 -1 25 3.5738362930715084e-03</internalNodes>
          <leafValues>
            -4.9068948626518250e-01 6.0462701320648193e-01</leafValues></_>
        <_>
          <internalNodes>
            0 -1 54 -4.4764307676814497e-04</internalNodes>
          <leafValues>
            -8.0985319614410400e-01 4.3157637119293213e-01</leafValues></_></weakClassifiers></_>
    <!-- stage 11 -->
    <_>
      <maxWeakCount>6</maxWeakCount>
      <stageThreshold>-2.9319608211517334e-01</stageThreshold>
      <weakClassifiers>
        <_>
          <internalNodes>
            0 -1 24 -1.1401766678318381e-03</internalNodes>
          <leafValues>
            5.0000000000000000e-01 -7.5000000000000000e-01</leafValues></_>
        <_>
          <internalNodes>
            0 -1 14 -6.6291829571127892e-03</internalNodes>
          <leafValues>
            6.9136536121368408e-01 -5.2459871768951416e-01</leafValues></_>
        <_>
          <internalNodes>
            0 -1 31 -3.5806687083095312e-04</internalNodes>
          <leafValues>
            4.7528672218322754e-01 -5.7118940353393555e-01</leafValues></_>
        <_>
          <internalNodes>
            0 -1 62 -1.5648372471332550e-02</internalNodes>
          <leafValues>
            7.6559591293334961e-01 -3.9519634842872620e-01</leafValues></_>
        <_>
          <internalNodes>
            0 -1 61 1.1180145666003227e-03</internalNodes>
          <leafValues>
            3.7299820780754089e-01 -8.3612167835235596e-01</leafValues></_>
        <_>
          <internalNodes>
            0 -1 30 -6.7862716969102621e-04</internalNodes>
          <leafValues>
            6.0127335786819458e-01 -6.3247817754745483e-01</leafValues></_></weakClassifiers></_>
    <!-- stage 12 -->
    <_>
      <maxWeakCount>5</maxWeakCount>
      <stageThreshold>-1.1417098045349121e+00</stageThreshold>
      <weakClassifiers>
        <_>
          <internalNodes>
            0 -1 60 -4.1529582813382149e-04</internalNodes>
          <leafValues>
            -8.8461536169052124e-01 3.1081080436706543e-01</leafValues></_>
        <_>
          <internalNodes>
            0 -1 55 -2.8786922339349985e-03</internalNodes>
          <leafValues>
            3.3218300342559814e-01 -8.4610760211944580e-01</leafValues></_>
        <_>
          <internalNodes>
            0 -1 21 -6.8219099193811417e-03</internalNodes>
          <leafValues>
            6.1407190561294556e-01 -5.2109277248382568e-01</leafValues></_>
        <_>
          <internalNodes>
            0 -1 13 -1.1958149261772633e-03</internalNodes>
          <leafValues>
            7.6596856117248535e-01 -3.8210618495941162e-01</leafValues></_>
        <_>
          <internalNodes>
            0 -1 34 5.0032096623908728e-05</internalNodes>
          <leafValues>
            2.9678592085838318e-01 -9.2433840036392212e-01</leafValues></_></weakClassifiers></_>
    <!-- stage 13 -->
    <_>
      <maxWeakCount>5</maxWeakCount>
      <stageThreshold>-4.2802485823631287e-01</stageThreshold>
      <weakClassifiers>
        <_>
          <internalNodes>
            0 -1 5 -1.9170892238616943e-01</internalNodes>
          <leafValues>
            7.8048777580261230e-01 -5.4237288236618042e-01</leafValues></_>
        <_>
          <internalNodes>
            0 -1 56 -1.7546354793012142e-03</internalNodes>
          <leafValues>
            5.5281090736389160e-01 -7.8476542234420776e-01</leafValues></_>
        <_>
          <internalNodes>
            0 -1 63 -2.2524362429976463e-04</internalNodes>
          <leafValues>
            6.9324594736099243e-01 -4.8702639341354370e-01</leafValues></_>
        <_>
          <internalNodes>
            0 -1 10 1.2335767969489098e-03</internalNodes>
          <leafValues>
            -3.5936370491981506e-01 7.6111525297164917e-01</leafValues></_>
        <_>
          <internalNodes>
            0 -1 26 -2.5508811813779175e-04</internalNodes>
          <leafValues>
            5.6523120403289795e-01 -6.2947005033493042e-01</leafValues></_></weakClassifiers></_>
    <!-- stage 14 -->
    <_>
      <maxWeakCount>4</maxWeakCount>
      <stageThreshold>-3.6197793483734131e-01</stageThreshold>
      <weakClassifiers>
        <_>
          <internalNodes>
            0 -1 12 -2.6409864425659180e-02</internalNodes>
          <leafValues>
            7.4418604373931885e-01 -5.6140351295471191e-01</leafValues></_>
        <_>
          <internalNodes>
            0 -1 36 5.8508273214101791e-03</internalNodes>
          <leafValues>
            3.7472254037857056e-01 -8.3042389154434204e-01</leafValues></_>
        <_>
          <internalNodes>
            0 -1 32 -5.9701828286051750e-04</internalNodes>
          <leafValues>
            4.7783261537551880e-01 -6.8838107585906982e-01</leafValues></_>
        <_>
          <internalNodes>
            0 -1 66 -1.4325795746117365e-05</internalNodes>
          <leafValues>
            5.5201685428619385e-01 -5.6718844175338745e-01</leafValues></_></weakClassifiers></_>
    <!-- stage 15 -->
    <_>
      <maxWeakCount>2</maxWeakCount>
      <stageThreshold>-5.8527849614620209e-02</stageThreshold>
      <weakClassifiers>
        <_>
          <internalNodes>
            0 -1 38 -2.0870855078101158e-03</internalNodes>
          <leafValues>
            -8.9999997615814209e-01 3.8571429252624512e-01</leafValues></_>
        <_>
          <internalNodes>
            0 -1 7 -1.0989024490118027e-01</internalNodes>
          <leafValues>
            8.4147214889526367e-01 -4.3506845831871033e-01</leafValues></_></weakClassifiers></_>
    <!-- stage 16 -->
    <_>
      <maxWeakCount>4</maxWeakCount>
      <stageThreshold>-3.6604991555213928e-01</stageThreshold>
      <weakClassifiers>
        <_>
          <internalNodes>
            0 -1 11 -1.2452859431505203e-02</internalNodes>
          <leafValues>
            6.7816090583801270e-01 -5.2212387323379517e-01</leafValues></_>
        <_>
          <internalNodes>
            0 -1 45 4.5997723937034607e-03</internalNodes>
          <leafValues>
            3.9854782819747925e-01 -8.7164825201034546e-01</leafValues></_>
        <_>
          <internalNodes>
            0 -1 57 -1.1842839739983901e-04</internalNodes>
          <leafValues>
            -8.9747154712677002e-01 4.2706993222236633e-01</leafValues></_>
        <_>
          <internalNodes>
            0 -1 0 -8.5407606093212962e-04</internalNodes>
          <leafValues>
            7.4284684658050537e-01 -5.4528713226318359e-01</leafValues></_></weakClassifiers></_>
    <!-- stage 17 -->
    <_>
      <maxWeakCount>4</maxWeakCount>
      <stageThreshold>1.2342927604913712e-01</stageThreshold>
      <weakClassifiers>
        <_>
          <internalNodes>
            0 -1 6 3.2547512091696262e-03</internalNodes>
          <leafValues>
            -4.9253731966018677e-01 1.</leafValues></_>
        <_>
          <internalNodes>
            0 -1 59 2.0913043990731239e-03</internalNodes>
          <leafValues>
            6.0365599393844604e-01 -8.5593569278717041e-01</leafValues></_>
        <_>
          <internalNodes>
            0 -1 65 -1.0831433610292152e-04</internalNodes>
          <leafValues>
            7.5213468074798584e-01 -7.2581440210342407e-01</leafValues></_>
        <_>
          <internalNodes>
            0 -1 68 1.1362203804310411e-04</internalNodes>
          <leafValues>
            7.7356690168380737e-01 -7.3982411623001099e-01</leafValues></_></weakClassifiers></_></stages>
  <features>
    <_>
      <rects>
        <_>
          0 25 12 2 -1.</_>
        <_>
          0 26 12 1 2.</_></rects>
      <tilted>0</tilted></_>
    <_>
      <rects>
        <_>
          0 37 8 1 -1.</_>
        <_>
          4 37 4 1 2.</_></rects>
      <tilted>0</tilted></_>
    <_>
      <rects>
        <_>
          1 2 12 32 -1.</_>
        <_>
          5 2 4 32 3.</_></rects>
      <tilted>0</tilted></_>
    <_>
      <rects>
        <_>
          1 27 6 3 -1.</_>
        <_>
          3 27 2 3 3.</_></rects>
      <tilted>0</tilted></_>
    <_>
      <rects>
        <_>
          2 6 9 32 -1.</_>
        <_>
          5 6 3 32 3.</_></rects>
      <tilted>0</tilted></_>
    <_>
      <rects>
        <_>
          2 13 9 18 -1.</_>
        <_>
          5 13 3 18 3.</_></rects>
      <tilted>0</tilted></_>
    <_>
      <rects>
        <_>
          2 38 10 2 -1.</_>
        <_>
          2 39 10 1 2.</_></rects>
      <tilted>0</tilted></_>
    <_>
      <rects>
        <_>
          3 13 9 6 -1.</_>
        <_>
          6 13 3 6 3.</_></rects>
      <tilted>0</tilted></_>
    <_>
      <rects>
        <_>
          3 14 9 17 -1.</_>
        <_>
          6 14 3 17 3.</_></rects>
      <tilted>0</tilted></_>
    <_>
      <rects>
        <_>
          3 17 8 20 -1.</_>
        <_>
          3 27 8 10 2.</_></rects>
      <tilted>0</tilted></_>
    <_>
      <rects>
        <_>
          3 21 2 10 -1.</_>
        <_>
          3 21 1 5 2.</_>
        <_>
          4 26 1 5 2.</_></rects>
      <tilted>0</tilted></_>
    <_>
      <rects>
        <_>
          3 28 4 12 -1.</_>
        <_>
          3 32 4 4 3.</_></rects>
      <tilted>0</tilted></_>
    <_>
      <rects>
        <_>
          3 28 8 12 -1.</_>
        <_>
          3 32 8 4 3.</_></rects>
      <tilted>0</tilted></_>
    <_>
      <rects>
        <_>
          3 34 2 4 -1.</_>
        <_>
          3 34 1 2 2.</_>
        <_>
          4 36 1 2 2.</_></rects>
      <tilted>0</tilted></_>
    <_>
      <rects>
        <_>
          3 34 7 6 -1.</_>
        <_>
          3 36 7 2 3.</_></rects>
      <tilted>0</tilted></_>
    <_>
      <rects>
        <_>
          4 2 5 3 -1.</_>
        <_>
          4 3 5 1 3.</_></rects>
      <tilted>0</tilted></_>
    <_>
      <rects>
        <_>
          4 4 6 31 -1.</_>
        <_>
          6 4 2 31 3.</_></rects>
      <tilted>0</tilted></_>
    <_>
      <rects>
        <_>
          4 7 6 11 -1.</_>
        <_>
          6 7 2 11 3.</_></rects>
      <tilted>0</tilted></_>
    <_>
      <rects>
        <_>
          4 12 6 13 -1.</_>
        <_>
          6 12 2 13 3.</_></rects>
      <tilted>0</tilted></_>
    <_>
      <rects>
        <_>
          4 20 6 5 -1.</_>
        <_>
          6 20 2 5 3.</_></rects>
      <tilted>0</tilted></_>
    <_>
      <rects>
        <_>
          4 36 7 4 -1.</_>
        <_>
          4 38 7 2 2.</_></rects>
      <tilted>0</tilted></_>
    <_>
      <rects>
        <_>
          5 0 5 4 -1.</_>
        <_>
          5 2 5 2 2.</_></rects>
      <tilted>0</tilted></_>
    <_>
      <rects>
        <_>
          5 1 5 2 -1.</_>
        <_>
          5 2 5 1 2.</_></rects>
      <tilted>0</tilted></_>
    <_>
      <rects>
        <_>
          5 1 5 6 -1.</_>
        <_>
          5 3 5 2 3.</_></rects>
      <tilted>0</tilted></_>
    <_>
      <rects>
        <_>
          5 13 3 4 -1.</_>
        <_>
          6 13 1 4 3.</_></rects>
      <tilted>0</tilted></_>
    <_>
      <rects>
        <_>
          5 20 4 18 -1.</_>
        <_>
          5 20 2 9 2.</_>
        <_>
          7 29 2 9 2.</_></rects>
      <tilted>0</tilted></_>
    <_>
      <rects>
        <_>
          5 24 3 1 -1.</_>
        <_>
          6 24 1 1 3.</_></rects>
      <tilted>0</tilted></_>
    <_>
      <rects>
        <_>
          5 27 5 9 -1.</_>
        <_>
          5 30 5 3 3.</_></rects>
      <tilted>0</tilted></_>
    <_>
      <rects>
        <_>
          5 30 5 9 -1.</_>
        <_>
          5 33 5 3 3.</_></rects>
      <tilted>0</tilted></_>
    <_>
      <rects>
        <_>
          5 31 4 3 -1.</_>
        <_>
          7 31 2 3 2.</_></rects>
      <tilted>0</tilted></_>
    <_>
      <rects>
        <_>
          5 33 2 6 -1.</_>
        <_>
          5 35 2 2 3.</_></rects>
      <tilted>0</tilted></_>
    <_>
      <rects>
        <_>
          5 35 6 1 -1.</_>
        <_>
          7 35 2 1 3.</_></rects>
      <tilted>0</tilted></_>
    <_>
      <rects>
        <_>
          6 1 4 2 -1.</_>
        <_>
          6 2 4 1 2.</_></rects>
      <tilted>0</tilted></_>
    <_>
      <rects>
        <_>
          6 10 2 18 -1.</_>
        <_>
          7 10 1 18 2.</_></rects>
      <tilted>0</tilted></_>
    <_>
      <rects>
        <_>
          6 12 2 4 -1.</_>
        <_>
          6 14 2 2 2.</_></rects>
      <tilted>0</tilted></_>
    <_>
      <rects>
        <_>
          6 12 2 28 -1.</_>
        <_>
          6 26 2 14 2.</_></rects>
      <tilted>0</tilted></_>
    <_>
      <rects>
        <_>
          6 13 1 26 -1.</_>
        <_>
          6 26 1 13 2.</_></rects>
      <tilted>0</tilted></_>
    <_>
      <rects>
        <_>
          6 14 3 24 -1.</_>
        <_>
          6 22 3 8 3.</_></rects>
      <tilted>0</tilted></_>
    <_>
      <rects>
        <_>
          6 15 1 18 -1.</_>
        <_>
          6 24 1 9 2.</_></rects>
      <tilted>0</tilted></_>
    <_>
      <rects>
        <_>
          6 15 3 24 -1.</_>
        <_>
          6 27 3 12 2.</_></rects>
      <tilted>0</tilted></_>
    <_>
      <rects>
        <_>
          6 16 2 4 -1.</_>
        <_>
          7 16 1 4 2.</_></rects>
      <tilted>0</tilted></_>
    <_>
      <rects>
        <_>
          6 16 3 6 -1.</_>
        <_>
          6 19 3 3 2.</_></rects>
      <tilted>0</tilted></_>
    <_>
      <rects>
        <_>
          6 17 3 13 -1.</_>
        <_>
          7 17 1 13 3.</_></rects>
      <tilted>0</tilted></_>
    <_>
      <rects>
        <_>
          6 18 3 7 -1.</_>
        <_>
          7 18 1 7 3.</_></rects>
      <tilted>0</tilted></_>
    <_>
      <rects>
        <_>
          6 23 3 1 -1.</_>
        <_>
          7 23 1 1 3.</_></rects>
      <tilted>0</tilted></_>
    <_>
      <rects>
        <_>
          6 23 1 16 -1.</_>
        <_>
          6 31 1 8 2.</_></rects>
      <tilted>0</tilted></_>
    <_>
      <rects>
        <_>
          6 28 2 10 -1.</_>
        <_>
          6 33 2 5 2.</_></rects>
      <tilted>0</tilted></_>
    <_>
      <rects>
        <_>
          6 29 1 8 -1.</_>
        <_>
          6 33 1 4 2.</_></rects>
      <tilted>0</tilted></_>
    <_>
      <rects>
        <_>
          6 33 2 4 -1.</_>
        <_>
          7 33 1 4 2.</_></rects>
      <tilted>0</tilted></_>
    <_>
      <rects>
        <_>
          6 33 3 5 -1.</_>
        <_>
          7 33 1 5 3.</_></rects>
      <tilted>0</tilted></_>
    <_>
      <rects>
        <_>
          7 0 1 14 -1.</_>
        <_>
          7 7 1 7 2.</_></rects>
      <tilted>0</tilted></_>
    <_>
      <rects>
        <_>
          7 9 1 26 -1.</_>
        <_>
          7 22 1 13 2.</_></rects>
      <tilted>0</tilted></_>
    <_>
      <rects>
        <_>
          7 12 1 18 -1.</_>
        <_>
          7 18 1 6 3.</_></rects>
      <tilted>0</tilted></_>
    <_>
      <rects>
        <_>
          7 16 1 16 -1.</_>
        <_>
          7 24 1 8 2.</_></rects>
      <tilted>0</tilted></_>
    <_>
      <rects>
        <_>
          7 17 1 16 -1.</_>
        <_>
          7 25 1 8 2.</_></rects>
      <tilted>0</tilted></_>
    <_>
      <rects>
        <_>
          7 18 2 22 -1.</_>
        <_>
          7 18 1 11 2.</_>
        <_>
          8 29 1 11 2.</_></rects>
      <tilted>0</tilted></_>
    <_>
      <rects>
        <_>
          7 19 2 18 -1.</_>
        <_>
          7 19 1 9 2.</_>
        <_>
          8 28 1 9 2.</_></rects>
      <tilted>0</tilted></_>
    <_>
      <rects>
        <_>
          7 23 1 3 -1.</_>
        <_>
          7 24 1 1 3.</_></rects>
      <tilted>0</tilted></_>
    <_>
      <rects>
        <_>
          7 24 2 8 -1.</_>
        <_>
          7 24 1 4 2.</_>
        <_>
          8 28 1 4 2.</_></rects>
      <tilted>0</tilted></_>
    <_>
      <rects>
        <_>
          7 25 2 14 -1.</_>
        <_>
          7 25 1 7 2.</_>
        <_>
          8 32 1 7 2.</_></rects>
      <tilted>0</tilted></_>
    <_>
      <rects>
        <_>
          7 31 2 6 -1.</_>
        <_>
          7 31 1 3 2.</_>
        <_>
          8 34 1 3 2.</_></rects>
      <tilted>0</tilted></_>
    <_>
      <rects>
        <_>
          7 33 3 4 -1.</_>
        <_>
          7 35 3 2 2.</_></rects>
      <tilted>0</tilted></_>
    <_>
      <rects>
        <_>
          8 1 4 32 -1.</_>
        <_>
          8 1 2 16 2.</_>
        <_>
          10 17 2 16 2.</_></rects>
      <tilted>0</tilted></_>
    <_>
      <rects>
        <_>
          8 13 4 4 -1.</_>
        <_>
          8 15 4 2 2.</_></rects>
      <tilted>0</tilted></_>
    <_>
      <rects>
        <_>
          8 14 1 6 -1.</_>
        <_>
          8 16 1 2 3.</_></rects>
      <tilted>0</tilted></_>
    <_>
      <rects>
        <_>
          8 16 2 6 -1.</_>
        <_>
          8 16 1 3 2.</_>
        <_>
          9 19 1 3 2.</_></rects>
      <tilted>0</tilted></_>
    <_>
      <rects>
        <_>
          8 32 3 3 -1.</_>
        <_>
          9 32 1 3 3.</_></rects>
      <tilted>0</tilted></_>
    <_>
      <rects>
        <_>
          8 32 4 6 -1.</_>
        <_>
          10 32 2 6 2.</_></rects>
      <tilted>0</tilted></_>
    <_>
      <rects>
        <_>
          12 2 1 2 -1.</_>
        <_>
          12 3 1 1 2.</_></rects>
      <tilted>0</tilted></_></features></cascade>
</opencv_storage>
