<?xml version="1.0"?>
<opencv_storage>
<cascade>
  <stageType>BOOST</stageType>
  <featureType>LBP</featureType>
  <height>40</height>
  <width>21</width>
  <stageParams>
    <boostType>GAB</boostType>
    <minHitRate>9.9500000476837158e-01</minHitRate>
    <maxFalseAlarm>5.0000000000000000e-01</maxFalseAlarm>
    <weightTrimRate>9.4999999999999996e-01</weightTrimRate>
    <maxDepth>1</maxDepth>
    <maxWeakCount>100</maxWeakCount></stageParams>
  <featureParams>
    <maxCatCount>256</maxCatCount>
    <featSize>1</featSize></featureParams>
  <stageNum>12</stageNum>
  <stages>
    <!-- stage 0 -->
    <_>
      <maxWeakCount>2</maxWeakCount>
      <stageThreshold>6.5814619883894920e-03</stageThreshold>
      <weakClassifiers>
        <_>
          <internalNodes>
            0 -1 14 -76033041 285950017 1090617346 289628289 -1022647925
            268681344 -1022840629 -2100241</internalNodes>
          <leafValues>
            -9.2673993110656738e-01 9.7183096408843994e-01</leafValues></_>
        <_>
          <internalNodes>
            0 -1 16 -747643949 -650035133 335609857 -787898229 273895745
            -1069481984 1620246571 -68158577</internalNodes>
          <leafValues>
            -9.3331766128540039e-01 9.3332141637802124e-01</leafValues></_></weakClassifiers></_>
    <!-- stage 1 -->
    <_>
      <maxWeakCount>2</maxWeakCount>
      <stageThreshold>-1.3093803822994232e-01</stageThreshold>
      <weakClassifiers>
        <_>
          <internalNodes>
            0 -1 17 -203423777 1359001026 -401485735 -549150581
            1939600079 402653184 -477433697 -70263601</internalNodes>
          <leafValues>
            -9.2030847072601318e-01 8.7104624509811401e-01</leafValues></_>
        <_>
          <internalNodes>
            0 -1 5 -7602689 -116927653 286282451 1070809495 -897398341
            -41237864 455855023 263966671</internalNodes>
          <leafValues>
            -9.4619154930114746e-01 7.8937047719955444e-01</leafValues></_></weakClassifiers></_>
    <!-- stage 2 -->
    <_>
      <maxWeakCount>2</maxWeakCount>
      <stageThreshold>-1.2528419494628906e-01</stageThreshold>
      <weakClassifiers>
        <_>
          <internalNodes>
            0 -1 15 -3189409 1939167061 1224935823 -111419382 -234419829
            -530554199 -89798161 -7697</internalNodes>
          <leafValues>
            -9.3001347780227661e-01 8.0630105733871460e-01</leafValues></_>
        <_>
          <internalNodes>
            0 -1 22 -654574849 -456081233 402820577 814413915 -392955425
            -75462237 -240678773 -1</internalNodes>
          <leafValues>
            -8.8995307683944702e-01 8.0472928285598755e-01</leafValues></_></weakClassifiers></_>
    <!-- stage 3 -->
    <_>
      <maxWeakCount>3</maxWeakCount>
      <stageThreshold>-9.8060047626495361e-01</stageThreshold>
      <weakClassifiers>
        <_>
          <internalNodes>
            0 -1 7 -5 1584365375 738197439 503279599 2136211443
            1329692671 -1 -1041</internalNodes>
          <leafValues>
            -8.0071175098419189e-01 8.9167767763137817e-01</leafValues></_>
        <_>
          <internalNodes>
            0 -1 24 -4194305 1041994267 -2130483705 85173919 -879810293
            -756580351 -1290813162 -1074791745</internalNodes>
          <leafValues>
            -9.3018388748168945e-01 7.7724868059158325e-01</leafValues></_>
        <_>
          <internalNodes>
            0 -1 2 -968097809 -430714289 -1018572009 -746346109
            1075010143 -1744728061 1208868625 -262209</internalNodes>
          <leafValues>
            -8.8697969913482666e-01 7.5029516220092773e-01</leafValues></_></weakClassifiers></_>
    <!-- stage 4 -->
    <_>
      <maxWeakCount>2</maxWeakCount>
      <stageThreshold>-1.1587812751531601e-01</stageThreshold>
      <weakClassifiers>
        <_>
          <internalNodes>
            0 -1 12 -33565917 1440699151 -1056751357 1561416395
            -976761857 -1735030392 -382994481 -68425553</internalNodes>
          <leafValues>
            -8.5769730806350708e-01 8.0169284343719482e-01</leafValues></_>
        <_>
          <internalNodes>
            0 -1 18 1441398751 1435880913 -1820294371 -6446315 965730047
            478856842 -1333008145 -3159329</internalNodes>
          <leafValues>
            -8.8162773847579956e-01 7.4181914329528809e-01</leafValues></_></weakClassifiers></_>
    <!-- stage 5 -->
    <_>
      <maxWeakCount>2</maxWeakCount>
      <stageThreshold>-1.2488146871328354e-01</stageThreshold>
      <weakClassifiers>
        <_>
          <internalNodes>
            0 -1 10 325304287 1937973147 -1047522147 1968521352
            -1283421729 -74597752 -632780646 -1052967</internalNodes>
          <leafValues>
            -8.4412151575088501e-01 7.5800710916519165e-01</leafValues></_>
        <_>
          <internalNodes>
            0 -1 25 -44899340 -572943307 -644836996 -590515571
            -187828535 -794443640 -1035893880 -570426933</internalNodes>
          <leafValues>
            -8.8288861513137817e-01 7.4549454450607300e-01</leafValues></_></weakClassifiers></_>
    <!-- stage 6 -->
    <_>
      <maxWeakCount>3</maxWeakCount>
      <stageThreshold>-8.6191993951797485e-01</stageThreshold>
      <weakClassifiers>
        <_>
          <internalNodes>
            0 -1 3 -524289 -176949662 -133082889 -1473 -143133185
            -161417472 -5011217 -534667</internalNodes>
          <leafValues>
            -7.5886523723602295e-01 8.5145890712738037e-01</leafValues></_>
        <_>
          <internalNodes>
            0 -1 20 -552077825 -111296169 327922007 -1357434879
            -746542165 -16669487 -2138234642 -1903433285</internalNodes>
          <leafValues>
            -8.2253086566925049e-01 7.5164943933486938e-01</leafValues></_>
        <_>
          <internalNodes>
            0 -1 21 -286721 1574764962 -485898083 2075485091 928453659
            -342195896 -117139319 -7603778</internalNodes>
          <leafValues>
            -8.5470414161682129e-01 7.2472953796386719e-01</leafValues></_></weakClassifiers></_>
    <!-- stage 7 -->
    <_>
      <maxWeakCount>3</maxWeakCount>
      <stageThreshold>-8.7350618839263916e-01</stageThreshold>
      <weakClassifiers>
        <_>
          <internalNodes>
            0 -1 11 -707805301 303104160 -884174847 -121573023
            -800462678 -1073709035 -993415038 -102512153</internalNodes>
          <leafValues>
            -8.0952382087707520e-01 8.0548626184463501e-01</leafValues></_>
        <_>
          <internalNodes>
            0 -1 8 -1838317 1376081955 1350893699 1552221363 -1321025485
            587236356 -761735521 -292822629</internalNodes>
          <leafValues>
            -8.3733892440795898e-01 7.6363700628280640e-01</leafValues></_>
        <_>
          <internalNodes>
            0 -1 23 -539108169 269550224 -1987034931 287113347
            -2030010205 -863993334 -2004869094 -276046966</internalNodes>
          <leafValues>
            -8.4165352582931519e-01 7.8172838687896729e-01</leafValues></_></weakClassifiers></_>
    <!-- stage 8 -->
    <_>
      <maxWeakCount>2</maxWeakCount>
      <stageThreshold>-2.7639314532279968e-02</stageThreshold>
      <weakClassifiers>
        <_>
          <internalNodes>
            0 -1 8 -12058797 1375829043 1125060799 1503888649 -81543054
            939548931 -408170885 -3411761</internalNodes>
          <leafValues>
            -8.1558442115783691e-01 7.5662648677825928e-01</leafValues></_>
        <_>
          <internalNodes>
            0 -1 26 -470816769 -69602387 1346420869 -522129184
            -498089461 -1031765935 -258834265 -64619861</internalNodes>
          <leafValues>
            -7.8426581621170044e-01 7.8951281309127808e-01</leafValues></_></weakClassifiers></_>
    <!-- stage 9 -->
    <_>
      <maxWeakCount>3</maxWeakCount>
      <stageThreshold>-8.3930444717407227e-01</stageThreshold>
      <weakClassifiers>
        <_>
          <internalNodes>
            0 -1 1 353569119 1342312512 294962 -1258223591 -2138978171
            -754974592 -729249655 -1283071861</internalNodes>
          <leafValues>
            -7.8443115949630737e-01 8.5620915889739990e-01</leafValues></_>
        <_>
          <internalNodes>
            0 -1 19 16872529 -2113928190 8388617 -1862236928 4719796
            -1039499135 1896532124 -269580158</internalNodes>
          <leafValues>
            -8.6746841669082642e-01 7.6120084524154663e-01</leafValues></_>
        <_>
          <internalNodes>
            0 -1 4 268506367 -774831081 -2130706240 269664256
            -2071684730 -1442806783 8405536 -503226256</internalNodes>
          <leafValues>
            -7.7320414781570435e-01 8.1259512901306152e-01</leafValues></_></weakClassifiers></_>
    <!-- stage 10 -->
    <_>
      <maxWeakCount>3</maxWeakCount>
      <stageThreshold>-7.3912990093231201e-01</stageThreshold>
      <weakClassifiers>
        <_>
          <internalNodes>
            0 -1 9 2138435494 -1543503873 -256 1879048191 2004148162
            2146762751 -657632 -1133117454</internalNodes>
          <leafValues>
            -8.2803297042846680e-01 9.3608522415161133e-01</leafValues></_>
        <_>
          <internalNodes>
            0 -1 13 544913 -805306365 268468225 -2147417600 137
            -939458392 9354 1167392769</internalNodes>
          <leafValues>
            -8.5265684127807617e-01 9.1095161437988281e-01</leafValues></_>
        <_>
          <internalNodes>
            0 -1 0 -2080358379 285278210 1 298991640 32901 1283457152
            131200 -1761539328</internalNodes>
          <leafValues>
            -7.8919857740402222e-01 9.4155991077423096e-01</leafValues></_></weakClassifiers></_>
    <!-- stage 11 -->
    <_>
      <maxWeakCount>1</maxWeakCount>
      <stageThreshold>1.</stageThreshold>
      <weakClassifiers>
        <_>
          <internalNodes>
            0 -1 6 134217729 0 0 134742016 0 2560 131072 134217728</internalNodes>
          <leafValues>
            -9.9750310182571411e-01 1.</leafValues></_></weakClassifiers></_></stages>
  <features>
    <_>
      <rect>
        1 1 4 4</rect></_>
    <_>
      <rect>
        3 27 5 3</rect></_>
    <_>
      <rect>
        4 9 2 6</rect></_>
    <_>
      <rect>
        4 12 3 3</rect></_>
    <_>
      <rect>
        4 15 3 2</rect></_>
    <_>
      <rect>
        6 2 3 5</rect></_>
    <_>
      <rect>
        6 6 2 3</rect></_>
    <_>
      <rect>
        6 14 1 4</rect></_>
    <_>
      <rect>
        6 14 1 5</rect></_>
    <_>
      <rect>
        6 26 1 3</rect></_>
    <_>
      <rect>
        7 8 2 5</rect></_>
    <_>
      <rect>
        7 12 1 5</rect></_>
    <_>
      <rect>
        7 13 1 7</rect></_>
    <_>
      <rect>
        7 28 2 4</rect></_>
    <_>
      <rect>
        8 7 2 10</rect></_>
    <_>
      <rect>
        8 8 1 8</rect></_>
    <_>
      <rect>
        8 13 1 6</rect></_>
    <_>
      <rect>
        8 17 2 6</rect></_>
    <_>
      <rect>
        8 18 2 2</rect></_>
    <_>
      <rect>
        8 20 1 2</rect></_>
    <_>
      <rect>
        9 4 2 3</rect></_>
    <_>
      <rect>
        9 13 1 7</rect></_>
    <_>
      <rect>
        9 13 2 8</rect></_>
    <_>
      <rect>
        9 21 2 6</rect></_>
    <_>
      <rect>
        10 8 1 10</rect></_>
    <_>
      <rect>
        10 24 1 4</rect></_>
    <_>
      <rect>
        12 23 1 4</rect></_></features></cascade>
</opencv_storage>
