<?xml version="1.0"?>
<opencv_storage>
<cascade>
  <stageType>BOOST</stageType>
  <featureType>LBP</featureType>
  <height>40</height>
  <width>17</width>
  <stageParams>
    <boostType>GAB</boostType>
    <minHitRate>9.9500000476837158e-01</minHitRate>
    <maxFalseAlarm>5.0000000000000000e-01</maxFalseAlarm>
    <weightTrimRate>9.4999999999999996e-01</weightTrimRate>
    <maxDepth>1</maxDepth>
    <maxWeakCount>100</maxWeakCount></stageParams>
  <featureParams>
    <maxCatCount>256</maxCatCount>
    <featSize>1</featSize></featureParams>
  <stageNum>14</stageNum>
  <stages>
    <!-- stage 0 -->
    <_>
      <maxWeakCount>2</maxWeakCount>
      <stageThreshold>-4.9342356622219086e-02</stageThreshold>
      <weakClassifiers>
        <_>
          <internalNodes>
            0 -1 6 -1 -1 -2143028486 -176949505 -8650761 -524289
            -170656397 -179833621</internalNodes>
          <leafValues>
            -8.9613527059555054e-01 9.6113991737365723e-01</leafValues></_>
        <_>
          <internalNodes>
            0 -1 28 -69206529 -803618545 -1065205246 -788309489
            -939271029 138519683 -2117885813 1423436239</internalNodes>
          <leafValues>
            -9.7461146116256714e-01 8.4679293632507324e-01</leafValues></_></weakClassifiers></_>
    <!-- stage 1 -->
    <_>
      <maxWeakCount>2</maxWeakCount>
      <stageThreshold>-2.0392659306526184e-01</stageThreshold>
      <weakClassifiers>
        <_>
          <internalNodes>
            0 -1 4 -211821569 -137638437 -2144288557 -242759459
            -1189356561 -133922173 -1073639201 -790103825</internalNodes>
          <leafValues>
            -8.9175260066986084e-01 8.3980584144592285e-01</leafValues></_>
        <_>
          <internalNodes>
            0 -1 29 -2099201 -53497717 -805208013 -167259425 -565446433
            -829257205 -2113350949 2096489461</internalNodes>
          <leafValues>
            -9.5946311950683594e-01 6.8782597780227661e-01</leafValues></_></weakClassifiers></_>
    <!-- stage 2 -->
    <_>
      <maxWeakCount>2</maxWeakCount>
      <stageThreshold>-1.2659427523612976e-01</stageThreshold>
      <weakClassifiers>
        <_>
          <internalNodes>
            0 -1 5 -69208065 -290213 -16781313 -721946626 -144179333 -1
            -167772166 -168302593</internalNodes>
          <leafValues>
            -8.3415842056274414e-01 8.5101008415222168e-01</leafValues></_>
        <_>
          <internalNodes>
            0 -1 21 -37224961 -8932649 -419304497 797692895 -1173378817
            -275167201 950137594 781187755</internalNodes>
          <leafValues>
            -9.3142181634902954e-01 7.0756411552429199e-01</leafValues></_></weakClassifiers></_>
    <!-- stage 3 -->
    <_>
      <maxWeakCount>3</maxWeakCount>
      <stageThreshold>-9.5688861608505249e-01</stageThreshold>
      <weakClassifiers>
        <_>
          <internalNodes>
            0 -1 14 -1048597 -8913053 268441695 -10486005 -27
            -1619558539 -2004251771 -1</internalNodes>
          <leafValues>
            -7.5672513246536255e-01 8.6845636367797852e-01</leafValues></_>
        <_>
          <internalNodes>
            0 -1 12 -65345893 -1275035129 1112080642 -735051470
            1216848039 -1744306170 -1592808917 -4194421</internalNodes>
          <leafValues>
            -8.0919456481933594e-01 7.4542844295501709e-01</leafValues></_>
        <_>
          <internalNodes>
            0 -1 11 -234884129 -1691516607 570909981 -606641917
            -929333105 -1060175797 63408529 1265844951</internalNodes>
          <leafValues>
            -8.5477221012115479e-01 6.0903114080429077e-01</leafValues></_></weakClassifiers></_>
    <!-- stage 4 -->
    <_>
      <maxWeakCount>2</maxWeakCount>
      <stageThreshold>-2.3812922835350037e-01</stageThreshold>
      <weakClassifiers>
        <_>
          <internalNodes>
            0 -1 33 -903748922 1120536320 -1073725440 -897441664
            1086958159 951126145 -1528254456 -74728793</internalNodes>
          <leafValues>
            -9.7421205043792725e-01 7.5388026237487793e-01</leafValues></_>
        <_>
          <internalNodes>
            0 -1 8 -715260427 -1050651452 557895915 -652107246
            -1064941423 -1968437120 -2147270503 -57545664</internalNodes>
          <leafValues>
            -8.7756150960922241e-01 7.3608279228210449e-01</leafValues></_></weakClassifiers></_>
    <!-- stage 5 -->
    <_>
      <maxWeakCount>4</maxWeakCount>
      <stageThreshold>-2.5399371981620789e-01</stageThreshold>
      <weakClassifiers>
        <_>
          <internalNodes>
            0 -1 15 -584754653 -1139048309 1090981907 -45016957
            -666113873 -1207402481 -619349009 -56247381</internalNodes>
          <leafValues>
            -8.4921765327453613e-01 6.6555184125900269e-01</leafValues></_>
        <_>
          <internalNodes>
            0 -1 17 -35654705 -619980502 809522003 -173551421 -368605193
            -1471694009 -1029471241 -101200233</internalNodes>
          <leafValues>
            -7.4734681844711304e-01 7.4311268329620361e-01</leafValues></_>
        <_>
          <internalNodes>
            0 -1 18 1175443927 -83115957 2820299 -81985076 1085244627
            1238076002 28019451 2112741353</internalNodes>
          <leafValues>
            -8.4123951196670532e-01 6.0626065731048584e-01</leafValues></_>
        <_>
          <internalNodes>
            0 -1 7 -577512513 797672712 -1877874277 -1147858543
            545829535 2099314818 -888500011 -609494889</internalNodes>
          <leafValues>
            -7.2450113296508789e-01 7.3631012439727783e-01</leafValues></_></weakClassifiers></_>
    <!-- stage 6 -->
    <_>
      <maxWeakCount>2</maxWeakCount>
      <stageThreshold>-1.9374692440032959e-01</stageThreshold>
      <weakClassifiers>
        <_>
          <internalNodes>
            0 -1 3 -606340109 -76296189 -1002352551 -1045757345
            -331349851 -1891564735 -1466857236 -68433105</internalNodes>
          <leafValues>
            -7.8877007961273193e-01 6.9248825311660767e-01</leafValues></_>
        <_>
          <internalNodes>
            0 -1 30 1615975287 -1883795053 2025947489 -207122045
            1787648303 -16215678 -930616853 2129654655</internalNodes>
          <leafValues>
            -8.7322133779525757e-01 5.9502315521240234e-01</leafValues></_></weakClassifiers></_>
    <!-- stage 7 -->
    <_>
      <maxWeakCount>4</maxWeakCount>
      <stageThreshold>-3.7413275241851807e-01</stageThreshold>
      <weakClassifiers>
        <_>
          <internalNodes>
            0 -1 25 -1601 -62715393 -84674821 -219087105 -572522497
            -855638017 -134217729 -5246977</internalNodes>
          <leafValues>
            -6.4464694261550903e-01 7.8393352031707764e-01</leafValues></_>
        <_>
          <internalNodes>
            0 -1 23 826769239 -1624129536 1494278495 -3948093 -507427683
            -100220792 -105680913 2146434795</internalNodes>
          <leafValues>
            -8.5025250911712646e-01 5.9577947854995728e-01</leafValues></_>
        <_>
          <internalNodes>
            0 -1 2 -6332785 -787503867 536891395 -16259833 -1090408785
            -534035826 -206582902 -185356050</internalNodes>
          <leafValues>
            -8.0555850267410278e-01 5.7923424243927002e-01</leafValues></_>
        <_>
          <internalNodes>
            0 -1 22 1124594143 1428265177 -1124050679 2131194479
            1208511487 -83107701 -40928417 2146402239</internalNodes>
          <leafValues>
            -8.2693082094192505e-01 5.4153239727020264e-01</leafValues></_></weakClassifiers></_>
    <!-- stage 8 -->
    <_>
      <maxWeakCount>3</maxWeakCount>
      <stageThreshold>-7.7004826068878174e-01</stageThreshold>
      <weakClassifiers>
        <_>
          <internalNodes>
            0 -1 16 -546832389 2131754959 -194574 -2097162 -8388685
            -8421610 -920652841 -61</internalNodes>
          <leafValues>
            -6.7924529314041138e-01 7.6595747470855713e-01</leafValues></_>
        <_>
          <internalNodes>
            0 -1 24 -1835869804 -1291697515 26280213 -175439616
            -268320593 -1999069024 -1577016598 -1069369182</internalNodes>
          <leafValues>
            -7.1631211042404175e-01 7.3982793092727661e-01</leafValues></_>
        <_>
          <internalNodes>
            0 -1 26 -486334449 -1449066165 268763137 -1147125745
            -1996291069 -1341587454 -1459552246 2079556110</internalNodes>
          <leafValues>
            -8.1969356536865234e-01 6.3253003358840942e-01</leafValues></_></weakClassifiers></_>
    <!-- stage 9 -->
    <_>
      <maxWeakCount>4</maxWeakCount>
      <stageThreshold>-1.5521301031112671e+00</stageThreshold>
      <weakClassifiers>
        <_>
          <internalNodes>
            0 -1 19 -1705819299 -90840270 71374912 -569835447
            -1835279609 -1365573221 -1064587128 -461137366</internalNodes>
          <leafValues>
            -7.8102189302444458e-01 5.8469945192337036e-01</leafValues></_>
        <_>
          <internalNodes>
            0 -1 9 -744823855 -552168990 8847509 -40172156 -1810134100
            -611580920 -939485173 -733814784</internalNodes>
          <leafValues>
            -7.9129385948181152e-01 5.3793227672576904e-01</leafValues></_>
        <_>
          <internalNodes>
            0 -1 13 -1043625129 -2138594718 -2147467256 -1588755447
            -2000581971 -1978988381 -2134265715 -305141041</internalNodes>
          <leafValues>
            -6.7192828655242920e-01 6.6166538000106812e-01</leafValues></_>
        <_>
          <internalNodes>
            0 -1 0 -117352033 2105872529 -1860105865 -653260543
            713032537 1820852360 -1195353972 -73559861</internalNodes>
          <leafValues>
            -6.4147973060607910e-01 6.6576379537582397e-01</leafValues></_></weakClassifiers></_>
    <!-- stage 10 -->
    <_>
      <maxWeakCount>4</maxWeakCount>
      <stageThreshold>-1.3734002113342285e+00</stageThreshold>
      <weakClassifiers>
        <_>
          <internalNodes>
            0 -1 10 -215710917 -267386858 1677721616 1435009304
            -1979678327 -385875968 -1996449656 -803208944</internalNodes>
          <leafValues>
            -7.5748932361602783e-01 5.9065628051757813e-01</leafValues></_>
        <_>
          <internalNodes>
            0 -1 27 -33554953 -34209793 -655361 -1074659331 -587203073
            -855769097 -570556417 -536870913</internalNodes>
          <leafValues>
            -5.7929271459579468e-01 8.0410647392272949e-01</leafValues></_>
        <_>
          <internalNodes>
            0 -1 1 -1073805605 -536936450 2130538351 2012937982
            1409220927 1056767871 -939579905 -268959745</internalNodes>
          <leafValues>
            -5.9620130062103271e-01 7.9131436347961426e-01</leafValues></_>
        <_>
          <internalNodes>
            0 -1 31 100717557 475598856 -2147479165 -640614400 524416
            -2004844376 402686088 1804445833</internalNodes>
          <leafValues>
            -8.2793253660202026e-01 5.6641554832458496e-01</leafValues></_></weakClassifiers></_>
    <!-- stage 11 -->
    <_>
      <maxWeakCount>3</maxWeakCount>
      <stageThreshold>-7.8677451610565186e-01</stageThreshold>
      <weakClassifiers>
        <_>
          <internalNodes>
            0 -1 34 -2147183488 557973524 8401152 288948225 -1879015416
            -1039138815 -2147483512 -1962163709</internalNodes>
          <leafValues>
            -6.7599070072174072e-01 7.8167116641998291e-01</leafValues></_>
        <_>
          <internalNodes>
            0 -1 10 -1879047392 537919504 1073741840 360742936
            -2113896054 -922681344 -2130667383 -1073741824</internalNodes>
          <leafValues>
            -8.6433249711990356e-01 6.2794512510299683e-01</leafValues></_>
        <_>
          <internalNodes>
            0 -1 35 2125442594 -2111112198 603588456 -794052984
            1073217519 -1787430913 1425506262 -186157594</internalNodes>
          <leafValues>
            -7.0411318540573120e-01 8.2017809152603149e-01</leafValues></_></weakClassifiers></_>
    <!-- stage 12 -->
    <_>
      <maxWeakCount>3</maxWeakCount>
      <stageThreshold>-4.4259297847747803e-01</stageThreshold>
      <weakClassifiers>
        <_>
          <internalNodes>
            0 -1 12 16777216 0 33622016 184549376 50331648 131072
            134217731 -1425342204</internalNodes>
          <leafValues>
            -7.3214286565780640e-01 9.3181818723678589e-01</leafValues></_>
        <_>
          <internalNodes>
            0 -1 32 16924673 1074790402 1 1090846722 1 167772160
            -2147450880 -1300168696</internalNodes>
          <leafValues>
            -6.4492857456207275e-01 9.7320175170898438e-01</leafValues></_>
        <_>
          <internalNodes>
            0 -1 36 -1893069168 -1967457632 1325270320 -797917590
            2013093833 -311009296 1190418036 1291134700</internalNodes>
          <leafValues>
            -6.8365192413330078e-01 9.3993657827377319e-01</leafValues></_></weakClassifiers></_>
    <!-- stage 13 -->
    <_>
      <maxWeakCount>1</maxWeakCount>
      <stageThreshold>1.</stageThreshold>
      <weakClassifiers>
        <_>
          <internalNodes>
            0 -1 20 0 0 65536 0 0 -2147483648 0 201850880</internalNodes>
          <leafValues>
            -9.9252802133560181e-01 1.</leafValues></_></weakClassifiers></_></stages>
  <features>
    <_>
      <rect>
        0 34 4 2</rect></_>
    <_>
      <rect>
        2 37 3 1</rect></_>
    <_>
      <rect>
        4 3 3 12</rect></_>
    <_>
      <rect>
        4 5 2 11</rect></_>
    <_>
      <rect>
        4 16 3 7</rect></_>
    <_>
      <rect>
        5 1 2 11</rect></_>
    <_>
      <rect>
        5 4 2 11</rect></_>
    <_>
      <rect>
        5 34 4 2</rect></_>
    <_>
      <rect>
        6 0 1 4</rect></_>
    <_>
      <rect>
        6 2 1 2</rect></_>
    <_>
      <rect>
        6 3 1 1</rect></_>
    <_>
      <rect>
        6 3 1 7</rect></_>
    <_>
      <rect>
        6 5 2 10</rect></_>
    <_>
      <rect>
        6 8 1 10</rect></_>
    <_>
      <rect>
        6 9 1 8</rect></_>
    <_>
      <rect>
        6 10 2 9</rect></_>
    <_>
      <rect>
        6 13 1 4</rect></_>
    <_>
      <rect>
        6 14 1 4</rect></_>
    <_>
      <rect>
        6 16 1 6</rect></_>
    <_>
      <rect>
        6 20 2 3</rect></_>
    <_>
      <rect>
        6 22 3 6</rect></_>
    <_>
      <rect>
        6 24 2 5</rect></_>
    <_>
      <rect>
        6 28 1 3</rect></_>
    <_>
      <rect>
        6 31 1 3</rect></_>
    <_>
      <rect>
        7 2 1 2</rect></_>
    <_>
      <rect>
        7 10 1 6</rect></_>
    <_>
      <rect>
        7 10 1 8</rect></_>
    <_>
      <rect>
        7 11 1 7</rect></_>
    <_>
      <rect>
        7 15 1 4</rect></_>
    <_>
      <rect>
        7 21 1 4</rect></_>
    <_>
      <rect>
        7 32 1 2</rect></_>
    <_>
      <rect>
        7 33 1 1</rect></_>
    <_>
      <rect>
        8 11 1 3</rect></_>
    <_>
      <rect>
        8 16 1 2</rect></_>
    <_>
      <rect>
        9 37 1 1</rect></_>
    <_>
      <rect>
        11 36 1 1</rect></_>
    <_>
      <rect>
        12 34 1 2</rect></_></features></cascade>
</opencv_storage>
