<?xml version="1.0"?>
<opencv_storage>
<cascade>
  <stageType>BOOST</stageType>
  <featureType>HAAR</featureType>
  <height>40</height>
  <width>17</width>
  <stageParams>
    <boostType>GAB</boostType>
    <minHitRate>9.9500000476837158e-01</minHitRate>
    <maxFalseAlarm>5.0000000000000000e-01</maxFalseAlarm>
    <weightTrimRate>9.4999999999999996e-01</weightTrimRate>
    <maxDepth>1</maxDepth>
    <maxWeakCount>100</maxWeakCount></stageParams>
  <featureParams>
    <maxCatCount>0</maxCatCount>
    <featSize>1</featSize>
    <mode>BASIC</mode></featureParams>
  <stageNum>18</stageNum>
  <stages>
    <!-- stage 0 -->
    <_>
      <maxWeakCount>3</maxWeakCount>
      <stageThreshold>-6.5739196538925171e-01</stageThreshold>
      <weakClassifiers>
        <_>
          <internalNodes>
            0 -1 24 -9.8760873079299927e-03</internalNodes>
          <leafValues>
            8.9583331346511841e-01 -8.2692307233810425e-01</leafValues></_>
        <_>
          <internalNodes>
            0 -1 17 -1.0483680292963982e-02</internalNodes>
          <leafValues>
            8.6083143949508667e-01 -6.4267760515213013e-01</leafValues></_>
        <_>
          <internalNodes>
            0 -1 41 3.4756045788526535e-03</internalNodes>
          <leafValues>
            -6.3077449798583984e-01 8.1220871210098267e-01</leafValues></_></weakClassifiers></_>
    <!-- stage 1 -->
    <_>
      <maxWeakCount>3</maxWeakCount>
      <stageThreshold>-7.0492464303970337e-01</stageThreshold>
      <weakClassifiers>
        <_>
          <internalNodes>
            0 -1 1 -1.0454332083463669e-01</internalNodes>
          <leafValues>
            9.1111111640930176e-01 -7.4545454978942871e-01</leafValues></_>
        <_>
          <internalNodes>
            0 -1 18 -1.0047509567812085e-03</internalNodes>
          <leafValues>
            7.0304936170578003e-01 -7.3575818538665771e-01</leafValues></_>
        <_>
          <internalNodes>
            0 -1 52 6.9333065766841173e-04</internalNodes>
          <leafValues>
            -6.4797097444534302e-01 7.7628803253173828e-01</leafValues></_></weakClassifiers></_>
    <!-- stage 2 -->
    <_>
      <maxWeakCount>2</maxWeakCount>
      <stageThreshold>-1.3892422616481781e-01</stageThreshold>
      <weakClassifiers>
        <_>
          <internalNodes>
            0 -1 10 -8.2649037241935730e-02</internalNodes>
          <leafValues>
            8.8764047622680664e-01 -7.1171170473098755e-01</leafValues></_>
        <_>
          <internalNodes>
            0 -1 37 -1.8790760805131868e-05</internalNodes>
          <leafValues>
            -9.7994506359100342e-01 5.7278746366500854e-01</leafValues></_></weakClassifiers></_>
    <!-- stage 3 -->
    <_>
      <maxWeakCount>1</maxWeakCount>
      <stageThreshold>5.7480317354202271e-01</stageThreshold>
      <weakClassifiers>
        <_>
          <internalNodes>
            0 -1 27 -2.4171839468181133e-03</internalNodes>
          <leafValues>
            5.7480317354202271e-01 -1.</leafValues></_></weakClassifiers></_>
    <!-- stage 4 -->
    <_>
      <maxWeakCount>4</maxWeakCount>
      <stageThreshold>-6.6849535703659058e-01</stageThreshold>
      <weakClassifiers>
        <_>
          <internalNodes>
            0 -1 25 -1.1342402547597885e-02</internalNodes>
          <leafValues>
            -8.9873415231704712e-01 5.8677685260772705e-01</leafValues></_>
        <_>
          <internalNodes>
            0 -1 4 -1.0241272300481796e-01</internalNodes>
          <leafValues>
            8.3579307794570923e-01 -6.3690841197967529e-01</leafValues></_>
        <_>
          <internalNodes>
            0 -1 47 -2.1365471184253693e-04</internalNodes>
          <leafValues>
            -9.8412716388702393e-01 4.8671779036521912e-01</leafValues></_>
        <_>
          <internalNodes>
            0 -1 43 9.6150051103904843e-04</internalNodes>
          <leafValues>
            3.8042941689491272e-01 -1.</leafValues></_></weakClassifiers></_>
    <!-- stage 5 -->
    <_>
      <maxWeakCount>5</maxWeakCount>
      <stageThreshold>-4.3047249317169189e-01</stageThreshold>
      <weakClassifiers>
        <_>
          <internalNodes>
            0 -1 2 -1.9059216976165771e-01</internalNodes>
          <leafValues>
            8.7951809167861938e-01 -6.2393164634704590e-01</leafValues></_>
        <_>
          <internalNodes>
            0 -1 21 -3.5832291468977928e-03</internalNodes>
          <leafValues>
            5.9428679943084717e-01 -8.3982759714126587e-01</leafValues></_>
        <_>
          <internalNodes>
            0 -1 28 1.0737434495240450e-03</internalNodes>
          <leafValues>
            3.6102733016014099e-01 -1.</leafValues></_>
        <_>
          <internalNodes>
            0 -1 45 5.2781935664825141e-05</internalNodes>
          <leafValues>
            3.7188446521759033e-01 -1.</leafValues></_>
        <_>
          <internalNodes>
            0 -1 36 -2.9057325446046889e-04</internalNodes>
          <leafValues>
            -9.5537227392196655e-01 3.0037492513656616e-01</leafValues></_></weakClassifiers></_>
    <!-- stage 6 -->
    <_>
      <maxWeakCount>2</maxWeakCount>
      <stageThreshold>-2.2015014290809631e-01</stageThreshold>
      <weakClassifiers>
        <_>
          <internalNodes>
            0 -1 9 6.9252173416316509e-03</internalNodes>
          <leafValues>
            -6.1538463830947876e-01 6.6666668653488159e-01</leafValues></_>
        <_>
          <internalNodes>
            0 -1 38 1.0683313121262472e-05</internalNodes>
          <leafValues>
            3.9523446559906006e-01 -1.</leafValues></_></weakClassifiers></_>
    <!-- stage 7 -->
    <_>
      <maxWeakCount>3</maxWeakCount>
      <stageThreshold>-9.3781471252441406e-01</stageThreshold>
      <weakClassifiers>
        <_>
          <internalNodes>
            0 -1 8 8.0477884039282799e-03</internalNodes>
          <leafValues>
            -5.7522124052047729e-01 7.4712646007537842e-01</leafValues></_>
        <_>
          <internalNodes>
            0 -1 39 -1.7077771481126547e-03</internalNodes>
          <leafValues>
            -9.6137624979019165e-01 5.1062327623367310e-01</leafValues></_>
        <_>
          <internalNodes>
            0 -1 44 -1.2887611228507012e-04</internalNodes>
          <leafValues>
            -8.7321674823760986e-01 4.1013419628143311e-01</leafValues></_></weakClassifiers></_>
    <!-- stage 8 -->
    <_>
      <maxWeakCount>4</maxWeakCount>
      <stageThreshold>-2.2049614787101746e-01</stageThreshold>
      <weakClassifiers>
        <_>
          <internalNodes>
            0 -1 20 1.9629378803074360e-03</internalNodes>
          <leafValues>
            -5.3333336114883423e-01 8.0000001192092896e-01</leafValues></_>
        <_>
          <internalNodes>
            0 -1 50 2.2272524802247062e-05</internalNodes>
          <leafValues>
            4.5601686835289001e-01 -1.</leafValues></_>
        <_>
          <internalNodes>
            0 -1 13 -3.5584762692451477e-02</internalNodes>
          <leafValues>
            6.5729194879531860e-01 -5.8324217796325684e-01</leafValues></_>
        <_>
          <internalNodes>
            0 -1 29 -3.3949041971936822e-04</internalNodes>
          <leafValues>
            -9.7576814889907837e-01 4.4006246328353882e-01</leafValues></_></weakClassifiers></_>
    <!-- stage 9 -->
    <_>
      <maxWeakCount>2</maxWeakCount>
      <stageThreshold>-1.8291004002094269e-01</stageThreshold>
      <weakClassifiers>
        <_>
          <internalNodes>
            0 -1 11 -9.6772141754627228e-02</internalNodes>
          <leafValues>
            7.2043013572692871e-01 -6.2616825103759766e-01</leafValues></_>
        <_>
          <internalNodes>
            0 -1 16 -1.5549610834568739e-03</internalNodes>
          <leafValues>
            4.8947086930274963e-01 -9.0334016084671021e-01</leafValues></_></weakClassifiers></_>
    <!-- stage 10 -->
    <_>
      <maxWeakCount>2</maxWeakCount>
      <stageThreshold>-2.7592206001281738e-01</stageThreshold>
      <weakClassifiers>
        <_>
          <internalNodes>
            0 -1 30 -1.7673830734565854e-04</internalNodes>
          <leafValues>
            -9.6923077106475830e-01 4.6666666865348816e-01</leafValues></_>
        <_>
          <internalNodes>
            0 -1 12 -6.7236423492431641e-02</internalNodes>
          <leafValues>
            6.9330871105194092e-01 -6.9202995300292969e-01</leafValues></_></weakClassifiers></_>
    <!-- stage 11 -->
    <_>
      <maxWeakCount>2</maxWeakCount>
      <stageThreshold>-2.8702121973037720e-01</stageThreshold>
      <weakClassifiers>
        <_>
          <internalNodes>
            0 -1 33 1.8574594287201762e-04</internalNodes>
          <leafValues>
            -9.6774190664291382e-01 4.3478259444236755e-01</leafValues></_>
        <_>
          <internalNodes>
            0 -1 15 -4.6533970162272453e-03</internalNodes>
          <leafValues>
            6.8072074651718140e-01 -5.7580125331878662e-01</leafValues></_></weakClassifiers></_>
    <!-- stage 12 -->
    <_>
      <maxWeakCount>3</maxWeakCount>
      <stageThreshold>1.1372988671064377e-01</stageThreshold>
      <weakClassifiers>
        <_>
          <internalNodes>
            0 -1 0 -9.1699855402112007e-03</internalNodes>
          <leafValues>
            5.4545456171035767e-01 -6.6666668653488159e-01</leafValues></_>
        <_>
          <internalNodes>
            0 -1 34 -3.8316723657771945e-04</internalNodes>
          <leafValues>
            5.5017524957656860e-01 -7.5190830230712891e-01</leafValues></_>
        <_>
          <internalNodes>
            0 -1 42 1.6935067833401263e-04</internalNodes>
          <leafValues>
            3.6036902666091919e-01 -9.8189991712570190e-01</leafValues></_></weakClassifiers></_>
    <!-- stage 13 -->
    <_>
      <maxWeakCount>4</maxWeakCount>
      <stageThreshold>-1.0578073263168335e+00</stageThreshold>
      <weakClassifiers>
        <_>
          <internalNodes>
            0 -1 22 -9.5915759447962046e-04</internalNodes>
          <leafValues>
            7.6086956262588501e-01 -6.4814811944961548e-01</leafValues></_>
        <_>
          <internalNodes>
            0 -1 19 2.0323796197772026e-03</internalNodes>
          <leafValues>
            -6.4393633604049683e-01 7.4528121948242188e-01</leafValues></_>
        <_>
          <internalNodes>
            0 -1 35 -9.7112613730132580e-04</internalNodes>
          <leafValues>
            6.9314497709274292e-01 -6.2422204017639160e-01</leafValues></_>
        <_>
          <internalNodes>
            0 -1 3 -4.1243672603741288e-04</internalNodes>
          <leafValues>
            9.4863235950469971e-01 -4.5886781811714172e-01</leafValues></_></weakClassifiers></_>
    <!-- stage 14 -->
    <_>
      <maxWeakCount>4</maxWeakCount>
      <stageThreshold>-5.8604824542999268e-01</stageThreshold>
      <weakClassifiers>
        <_>
          <internalNodes>
            0 -1 26 -3.9902729913592339e-03</internalNodes>
          <leafValues>
            -9.2307692766189575e-01 3.2432430982589722e-01</leafValues></_>
        <_>
          <internalNodes>
            0 -1 49 -3.7606509868055582e-03</internalNodes>
          <leafValues>
            5.7903683185577393e-01 -5.4933941364288330e-01</leafValues></_>
        <_>
          <internalNodes>
            0 -1 31 -5.0271977670490742e-05</internalNodes>
          <leafValues>
            -8.4547972679138184e-01 3.7084457278251648e-01</leafValues></_>
        <_>
          <internalNodes>
            0 -1 40 -1.6342164599336684e-04</internalNodes>
          <leafValues>
            5.6805610656738281e-01 -7.3187774419784546e-01</leafValues></_></weakClassifiers></_>
    <!-- stage 15 -->
    <_>
      <maxWeakCount>4</maxWeakCount>
      <stageThreshold>-5.8436620235443115e-01</stageThreshold>
      <weakClassifiers>
        <_>
          <internalNodes>
            0 -1 7 -5.0728791393339634e-03</internalNodes>
          <leafValues>
            6.5591394901275635e-01 -5.7009345293045044e-01</leafValues></_>
        <_>
          <internalNodes>
            0 -1 43 9.5138949109241366e-04</internalNodes>
          <leafValues>
            3.3866995573043823e-01 -1.</leafValues></_>
        <_>
          <internalNodes>
            0 -1 23 -1.5527545474469662e-03</internalNodes>
          <leafValues>
            -6.4882528781890869e-01 4.8727974295616150e-01</leafValues></_>
        <_>
          <internalNodes>
            0 -1 46 -8.0214973422698677e-05</internalNodes>
          <leafValues>
            -9.8202395439147949e-01 2.9588255286216736e-01</leafValues></_></weakClassifiers></_>
    <!-- stage 16 -->
    <_>
      <maxWeakCount>3</maxWeakCount>
      <stageThreshold>-4.9184286594390869e-01</stageThreshold>
      <weakClassifiers>
        <_>
          <internalNodes>
            0 -1 14 -2.7101505547761917e-03</internalNodes>
          <leafValues>
            6.1818182468414307e-01 -7.5555557012557983e-01</leafValues></_>
        <_>
          <internalNodes>
            0 -1 6 -2.4411900085397065e-04</internalNodes>
          <leafValues>
            7.1578001976013184e-01 -6.9684284925460815e-01</leafValues></_>
        <_>
          <internalNodes>
            0 -1 5 -1.4085909060668200e-04</internalNodes>
          <leafValues>
            1. -4.1318187117576599e-01</leafValues></_></weakClassifiers></_>
    <!-- stage 17 -->
    <_>
      <maxWeakCount>3</maxWeakCount>
      <stageThreshold>3.8176491856575012e-01</stageThreshold>
      <weakClassifiers>
        <_>
          <internalNodes>
            0 -1 48 9.5071102259680629e-04</internalNodes>
          <leafValues>
            5.5555558204650879e-01 -9.4594591856002808e-01</leafValues></_>
        <_>
          <internalNodes>
            0 -1 32 1.0451260022819042e-03</internalNodes>
          <leafValues>
            6.7983078956604004e-01 -9.3229436874389648e-01</leafValues></_>
        <_>
          <internalNodes>
            0 -1 51 -1.4658835425507277e-04</internalNodes>
          <leafValues>
            7.5850373506546021e-01 -8.5174638032913208e-01</leafValues></_></weakClassifiers></_></stages>
  <features>
    <_>
      <rects>
        <_>
          1 37 15 1 -1.</_>
        <_>
          6 37 5 1 3.</_></rects>
      <tilted>0</tilted></_>
    <_>
      <rects>
        <_>
          3 2 9 24 -1.</_>
        <_>
          6 2 3 24 3.</_></rects>
      <tilted>0</tilted></_>
    <_>
      <rects>
        <_>
          3 8 9 31 -1.</_>
        <_>
          6 8 3 31 3.</_></rects>
      <tilted>0</tilted></_>
    <_>
      <rects>
        <_>
          4 19 4 4 -1.</_>
        <_>
          4 19 2 2 2.</_>
        <_>
          6 21 2 2 2.</_></rects>
      <tilted>0</tilted></_>
    <_>
      <rects>
        <_>
          4 19 9 12 -1.</_>
        <_>
          7 19 3 12 3.</_></rects>
      <tilted>0</tilted></_>
    <_>
      <rects>
        <_>
          4 22 3 1 -1.</_>
        <_>
          5 22 1 1 3.</_></rects>
      <tilted>0</tilted></_>
    <_>
      <rects>
        <_>
          4 27 3 6 -1.</_>
        <_>
          4 29 3 2 3.</_></rects>
      <tilted>0</tilted></_>
    <_>
      <rects>
        <_>
          4 27 3 12 -1.</_>
        <_>
          4 31 3 4 3.</_></rects>
      <tilted>0</tilted></_>
    <_>
      <rects>
        <_>
          4 36 8 4 -1.</_>
        <_>
          4 38 8 2 2.</_></rects>
      <tilted>0</tilted></_>
    <_>
      <rects>
        <_>
          4 36 9 4 -1.</_>
        <_>
          4 38 9 2 2.</_></rects>
      <tilted>0</tilted></_>
    <_>
      <rects>
        <_>
          5 8 6 23 -1.</_>
        <_>
          7 8 2 23 3.</_></rects>
      <tilted>0</tilted></_>
    <_>
      <rects>
        <_>
          5 10 6 21 -1.</_>
        <_>
          7 10 2 21 3.</_></rects>
      <tilted>0</tilted></_>
    <_>
      <rects>
        <_>
          5 14 6 12 -1.</_>
        <_>
          7 14 2 12 3.</_></rects>
      <tilted>0</tilted></_>
    <_>
      <rects>
        <_>
          5 16 6 6 -1.</_>
        <_>
          7 16 2 6 3.</_></rects>
      <tilted>0</tilted></_>
    <_>
      <rects>
        <_>
          5 28 4 12 -1.</_>
        <_>
          5 32 4 4 3.</_></rects>
      <tilted>0</tilted></_>
    <_>
      <rects>
        <_>
          6 2 5 4 -1.</_>
        <_>
          6 4 5 2 2.</_></rects>
      <tilted>0</tilted></_>
    <_>
      <rects>
        <_>
          6 3 4 18 -1.</_>
        <_>
          6 9 4 6 3.</_></rects>
      <tilted>0</tilted></_>
    <_>
      <rects>
        <_>
          6 4 2 31 -1.</_>
        <_>
          7 4 1 31 2.</_></rects>
      <tilted>0</tilted></_>
    <_>
      <rects>
        <_>
          6 11 3 3 -1.</_>
        <_>
          7 11 1 3 3.</_></rects>
      <tilted>0</tilted></_>
    <_>
      <rects>
        <_>
          6 16 2 20 -1.</_>
        <_>
          6 16 1 10 2.</_>
        <_>
          7 26 1 10 2.</_></rects>
      <tilted>0</tilted></_>
    <_>
      <rects>
        <_>
          6 38 5 2 -1.</_>
        <_>
          6 39 5 1 2.</_></rects>
      <tilted>0</tilted></_>
    <_>
      <rects>
        <_>
          7 2 2 27 -1.</_>
        <_>
          7 11 2 9 3.</_></rects>
      <tilted>0</tilted></_>
    <_>
      <rects>
        <_>
          7 3 2 6 -1.</_>
        <_>
          7 5 2 2 3.</_></rects>
      <tilted>0</tilted></_>
    <_>
      <rects>
        <_>
          7 6 1 24 -1.</_>
        <_>
          7 18 1 12 2.</_></rects>
      <tilted>0</tilted></_>
    <_>
      <rects>
        <_>
          7 11 3 18 -1.</_>
        <_>
          8 11 1 18 3.</_></rects>
      <tilted>0</tilted></_>
    <_>
      <rects>
        <_>
          7 11 2 26 -1.</_>
        <_>
          7 24 2 13 2.</_></rects>
      <tilted>0</tilted></_>
    <_>
      <rects>
        <_>
          7 13 2 25 -1.</_>
        <_>
          8 13 1 25 2.</_></rects>
      <tilted>0</tilted></_>
    <_>
      <rects>
        <_>
          7 13 3 24 -1.</_>
        <_>
          7 25 3 12 2.</_></rects>
      <tilted>0</tilted></_>
    <_>
      <rects>
        <_>
          7 16 2 9 -1.</_>
        <_>
          7 19 2 3 3.</_></rects>
      <tilted>0</tilted></_>
    <_>
      <rects>
        <_>
          7 19 2 4 -1.</_>
        <_>
          7 21 2 2 2.</_></rects>
      <tilted>0</tilted></_>
    <_>
      <rects>
        <_>
          7 20 2 18 -1.</_>
        <_>
          7 20 1 9 2.</_>
        <_>
          8 29 1 9 2.</_></rects>
      <tilted>0</tilted></_>
    <_>
      <rects>
        <_>
          7 25 1 3 -1.</_>
        <_>
          7 26 1 1 3.</_></rects>
      <tilted>0</tilted></_>
    <_>
      <rects>
        <_>
          7 27 2 12 -1.</_>
        <_>
          7 27 1 6 2.</_>
        <_>
          8 33 1 6 2.</_></rects>
      <tilted>0</tilted></_>
    <_>
      <rects>
        <_>
          7 28 2 12 -1.</_>
        <_>
          7 34 2 6 2.</_></rects>
      <tilted>0</tilted></_>
    <_>
      <rects>
        <_>
          7 28 5 6 -1.</_>
        <_>
          7 30 5 2 3.</_></rects>
      <tilted>0</tilted></_>
    <_>
      <rects>
        <_>
          7 30 6 4 -1.</_>
        <_>
          9 30 2 4 3.</_></rects>
      <tilted>0</tilted></_>
    <_>
      <rects>
        <_>
          7 32 2 4 -1.</_>
        <_>
          7 32 1 2 2.</_>
        <_>
          8 34 1 2 2.</_></rects>
      <tilted>0</tilted></_>
    <_>
      <rects>
        <_>
          7 32 1 6 -1.</_>
        <_>
          7 35 1 3 2.</_></rects>
      <tilted>0</tilted></_>
    <_>
      <rects>
        <_>
          7 34 3 3 -1.</_>
        <_>
          8 34 1 3 3.</_></rects>
      <tilted>0</tilted></_>
    <_>
      <rects>
        <_>
          7 34 3 4 -1.</_>
        <_>
          8 34 1 4 3.</_></rects>
      <tilted>0</tilted></_>
    <_>
      <rects>
        <_>
          7 37 3 2 -1.</_>
        <_>
          8 37 1 2 3.</_></rects>
      <tilted>0</tilted></_>
    <_>
      <rects>
        <_>
          8 15 3 8 -1.</_>
        <_>
          9 15 1 8 3.</_></rects>
      <tilted>0</tilted></_>
    <_>
      <rects>
        <_>
          8 18 1 9 -1.</_>
        <_>
          8 21 1 3 3.</_></rects>
      <tilted>0</tilted></_>
    <_>
      <rects>
        <_>
          8 18 1 18 -1.</_>
        <_>
          8 24 1 6 3.</_></rects>
      <tilted>0</tilted></_>
    <_>
      <rects>
        <_>
          8 19 1 6 -1.</_>
        <_>
          8 21 1 2 3.</_></rects>
      <tilted>0</tilted></_>
    <_>
      <rects>
        <_>
          8 20 1 2 -1.</_>
        <_>
          8 21 1 1 2.</_></rects>
      <tilted>0</tilted></_>
    <_>
      <rects>
        <_>
          8 21 1 3 -1.</_>
        <_>
          8 22 1 1 3.</_></rects>
      <tilted>0</tilted></_>
    <_>
      <rects>
        <_>
          8 22 1 9 -1.</_>
        <_>
          8 25 1 3 3.</_></rects>
      <tilted>0</tilted></_>
    <_>
      <rects>
        <_>
          8 24 1 14 -1.</_>
        <_>
          8 31 1 7 2.</_></rects>
      <tilted>0</tilted></_>
    <_>
      <rects>
        <_>
          8 32 6 5 -1.</_>
        <_>
          10 32 2 5 3.</_></rects>
      <tilted>0</tilted></_>
    <_>
      <rects>
        <_>
          8 33 3 5 -1.</_>
        <_>
          9 33 1 5 3.</_></rects>
      <tilted>0</tilted></_>
    <_>
      <rects>
        <_>
          9 23 2 14 -1.</_>
        <_>
          9 23 1 7 2.</_>
        <_>
          10 30 1 7 2.</_></rects>
      <tilted>0</tilted></_>
    <_>
      <rects>
        <_>
          9 36 4 1 -1.</_>
        <_>
          11 36 2 1 2.</_></rects>
      <tilted>0</tilted></_></features></cascade>
</opencv_storage>
