<?xml version="1.0"?>
<opencv_storage>
<cascade>
  <stageType>BOOST</stageType>
  <featureType>HAAR</featureType>
  <height>40</height>
  <width>21</width>
  <stageParams>
    <boostType>GAB</boostType>
    <minHitRate>9.9500000476837158e-01</minHitRate>
    <maxFalseAlarm>5.0000000000000000e-01</maxFalseAlarm>
    <weightTrimRate>9.4999999999999996e-01</weightTrimRate>
    <maxDepth>1</maxDepth>
    <maxWeakCount>100</maxWeakCount></stageParams>
  <featureParams>
    <maxCatCount>0</maxCatCount>
    <featSize>1</featSize>
    <mode>BASIC</mode></featureParams>
  <stageNum>16</stageNum>
  <stages>
    <!-- stage 0 -->
    <_>
      <maxWeakCount>2</maxWeakCount>
      <stageThreshold>-2.5443315505981445e-01</stageThreshold>
      <weakClassifiers>
        <_>
          <internalNodes>
            0 -1 5 -2.2586502134799957e-01</internalNodes>
          <leafValues>
            9.2876714468002319e-01 -7.7931034564971924e-01</leafValues></_>
        <_>
          <internalNodes>
            0 -1 16 -4.2280019260942936e-03</internalNodes>
          <leafValues>
            5.2487719058990479e-01 -9.7118473052978516e-01</leafValues></_></weakClassifiers></_>
    <!-- stage 1 -->
    <_>
      <maxWeakCount>2</maxWeakCount>
      <stageThreshold>-2.8013688325881958e-01</stageThreshold>
      <weakClassifiers>
        <_>
          <internalNodes>
            0 -1 1 -3.7430131435394287e-01</internalNodes>
          <leafValues>
            8.6776858568191528e-01 -7.2082382440567017e-01</leafValues></_>
        <_>
          <internalNodes>
            0 -1 35 -4.2020285036414862e-04</internalNodes>
          <leafValues>
            -9.8776179552078247e-01 4.4068691134452820e-01</leafValues></_></weakClassifiers></_>
    <!-- stage 2 -->
    <_>
      <maxWeakCount>2</maxWeakCount>
      <stageThreshold>-2.6896724104881287e-01</stageThreshold>
      <weakClassifiers>
        <_>
          <internalNodes>
            0 -1 3 -3.0533194541931152e-01</internalNodes>
          <leafValues>
            8.2539683580398560e-01 -7.3933649063110352e-01</leafValues></_>
        <_>
          <internalNodes>
            0 -1 34 1.8690583601710387e-05</internalNodes>
          <leafValues>
            4.7036924958229065e-01 -9.7220337390899658e-01</leafValues></_></weakClassifiers></_>
    <!-- stage 3 -->
    <_>
      <maxWeakCount>2</maxWeakCount>
      <stageThreshold>-1.5584908425807953e-01</stageThreshold>
      <weakClassifiers>
        <_>
          <internalNodes>
            0 -1 2 -4.7705119848251343e-01</internalNodes>
          <leafValues>
            8.0588233470916748e-01 -5.9565216302871704e-01</leafValues></_>
        <_>
          <internalNodes>
            0 -1 42 4.9172835133504122e-05</internalNodes>
          <leafValues>
            4.5120516419410706e-01 -9.6173143386840820e-01</leafValues></_></weakClassifiers></_>
    <!-- stage 4 -->
    <_>
      <maxWeakCount>2</maxWeakCount>
      <stageThreshold>-2.1441322565078735e-01</stageThreshold>
      <weakClassifiers>
        <_>
          <internalNodes>
            0 -1 13 6.7679639905691147e-03</internalNodes>
          <leafValues>
            -6.3510394096374512e-01 7.4931877851486206e-01</leafValues></_>
        <_>
          <internalNodes>
            0 -1 33 -2.3820968344807625e-03</internalNodes>
          <leafValues>
            -9.6373200416564941e-01 4.7488188743591309e-01</leafValues></_></weakClassifiers></_>
    <!-- stage 5 -->
    <_>
      <maxWeakCount>4</maxWeakCount>
      <stageThreshold>-7.4819308519363403e-01</stageThreshold>
      <weakClassifiers>
        <_>
          <internalNodes>
            0 -1 15 -2.3669674992561340e-03</internalNodes>
          <leafValues>
            4.3897995352745056e-01 -9.6015936136245728e-01</leafValues></_>
        <_>
          <internalNodes>
            0 -1 43 -1.1631419329205528e-04</internalNodes>
          <leafValues>
            4.0048447251319885e-01 -9.0124654769897461e-01</leafValues></_>
        <_>
          <internalNodes>
            0 -1 7 -2.1064706146717072e-02</internalNodes>
          <leafValues>
            6.7895704507827759e-01 -5.7436728477478027e-01</leafValues></_>
        <_>
          <internalNodes>
            0 -1 44 1.1615427210927010e-03</internalNodes>
          <leafValues>
            -9.6488356590270996e-01 3.8793453574180603e-01</leafValues></_></weakClassifiers></_>
    <!-- stage 6 -->
    <_>
      <maxWeakCount>4</maxWeakCount>
      <stageThreshold>-9.9654704332351685e-01</stageThreshold>
      <weakClassifiers>
        <_>
          <internalNodes>
            0 -1 14 -6.7912866361439228e-03</internalNodes>
          <leafValues>
            5.3648066520690918e-01 -7.4850296974182129e-01</leafValues></_>
        <_>
          <internalNodes>
            0 -1 31 1.0761874727904797e-03</internalNodes>
          <leafValues>
            3.5361444950103760e-01 -9.5609921216964722e-01</leafValues></_>
        <_>
          <internalNodes>
            0 -1 19 -1.0610482604533900e-05</internalNodes>
          <leafValues>
            -8.9216482639312744e-01 3.0843049287796021e-01</leafValues></_>
        <_>
          <internalNodes>
            0 -1 18 9.0125131464446895e-06</internalNodes>
          <leafValues>
            2.9050627350807190e-01 -9.7050905227661133e-01</leafValues></_></weakClassifiers></_>
    <!-- stage 7 -->
    <_>
      <maxWeakCount>3</maxWeakCount>
      <stageThreshold>-1.6917976737022400e-01</stageThreshold>
      <weakClassifiers>
        <_>
          <internalNodes>
            0 -1 11 -7.8578537795692682e-04</internalNodes>
          <leafValues>
            5.5752211809158325e-01 -7.2413790225982666e-01</leafValues></_>
        <_>
          <internalNodes>
            0 -1 26 -1.0427408415125683e-04</internalNodes>
          <leafValues>
            -9.4784963130950928e-01 3.6967039108276367e-01</leafValues></_>
        <_>
          <internalNodes>
            0 -1 45 -7.0330621383618563e-05</internalNodes>
          <leafValues>
            -9.7609639167785645e-01 2.2114774584770203e-01</leafValues></_></weakClassifiers></_>
    <!-- stage 8 -->
    <_>
      <maxWeakCount>4</maxWeakCount>
      <stageThreshold>-7.5012677907943726e-01</stageThreshold>
      <weakClassifiers>
        <_>
          <internalNodes>
            0 -1 28 -1.9151928136125207e-03</internalNodes>
          <leafValues>
            4.7008547186851501e-01 -6.6265058517456055e-01</leafValues></_>
        <_>
          <internalNodes>
            0 -1 38 8.6574773376923986e-06</internalNodes>
          <leafValues>
            -9.8550724983215332e-01 3.1091514229774475e-01</leafValues></_>
        <_>
          <internalNodes>
            0 -1 41 2.6046274797408842e-05</internalNodes>
          <leafValues>
            3.4484443068504333e-01 -8.9029479026794434e-01</leafValues></_>
        <_>
          <internalNodes>
            0 -1 47 -1.3217380037531257e-03</internalNodes>
          <leafValues>
            4.9190345406532288e-01 -5.9444344043731689e-01</leafValues></_></weakClassifiers></_>
    <!-- stage 9 -->
    <_>
      <maxWeakCount>5</maxWeakCount>
      <stageThreshold>-1.4467993974685669e+00</stageThreshold>
      <weakClassifiers>
        <_>
          <internalNodes>
            0 -1 30 -3.8621760904788971e-03</internalNodes>
          <leafValues>
            -8.6617100238800049e-01 4.3879473209381104e-01</leafValues></_>
        <_>
          <internalNodes>
            0 -1 29 -1.7597712576389313e-03</internalNodes>
          <leafValues>
            4.8495447635650635e-01 -6.2943035364151001e-01</leafValues></_>
        <_>
          <internalNodes>
            0 -1 46 3.2152482162928209e-05</internalNodes>
          <leafValues>
            3.1912249326705933e-01 -9.7135102748870850e-01</leafValues></_>
        <_>
          <internalNodes>
            0 -1 20 7.5057294452562928e-04</internalNodes>
          <leafValues>
            2.7640819549560547e-01 -9.7050118446350098e-01</leafValues></_>
        <_>
          <internalNodes>
            0 -1 9 1.2952082324773073e-03</internalNodes>
          <leafValues>
            -5.6122088432312012e-01 5.4590076208114624e-01</leafValues></_></weakClassifiers></_>
    <!-- stage 10 -->
    <_>
      <maxWeakCount>5</maxWeakCount>
      <stageThreshold>-6.0580974817276001e-01</stageThreshold>
      <weakClassifiers>
        <_>
          <internalNodes>
            0 -1 37 4.6179461060091853e-04</internalNodes>
          <leafValues>
            3.8407078385353088e-01 -9.2340427637100220e-01</leafValues></_>
        <_>
          <internalNodes>
            0 -1 17 9.4603701654705219e-06</internalNodes>
          <leafValues>
            -8.9328187704086304e-01 2.9341742396354675e-01</leafValues></_>
        <_>
          <internalNodes>
            0 -1 36 -5.2943406626582146e-04</internalNodes>
          <leafValues>
            -9.7160011529922485e-01 3.0119374394416809e-01</leafValues></_>
        <_>
          <internalNodes>
            0 -1 8 -1.7324574291706085e-02</internalNodes>
          <leafValues>
            6.4610117673873901e-01 -5.6395703554153442e-01</leafValues></_>
        <_>
          <internalNodes>
            0 -1 24 6.2576458731200546e-05</internalNodes>
          <leafValues>
            3.6637550592422485e-01 -9.5779901742935181e-01</leafValues></_></weakClassifiers></_>
    <!-- stage 11 -->
    <_>
      <maxWeakCount>3</maxWeakCount>
      <stageThreshold>-1.6141577064990997e-01</stageThreshold>
      <weakClassifiers>
        <_>
          <internalNodes>
            0 -1 48 -3.0369704472832382e-04</internalNodes>
          <leafValues>
            4.0489640831947327e-01 -7.9925650358200073e-01</leafValues></_>
        <_>
          <internalNodes>
            0 -1 32 2.4339344236068428e-04</internalNodes>
          <leafValues>
            2.6070043444633484e-01 -9.8399245738983154e-01</leafValues></_>
        <_>
          <internalNodes>
            0 -1 12 3.5968681913800538e-05</internalNodes>
          <leafValues>
            -6.9983482360839844e-01 4.1768023371696472e-01</leafValues></_></weakClassifiers></_>
    <!-- stage 12 -->
    <_>
      <maxWeakCount>4</maxWeakCount>
      <stageThreshold>-5.5841267108917236e-01</stageThreshold>
      <weakClassifiers>
        <_>
          <internalNodes>
            0 -1 10 -2.5202197954058647e-02</internalNodes>
          <leafValues>
            7.5084173679351807e-01 -4.4333997368812561e-01</leafValues></_>
        <_>
          <internalNodes>
            0 -1 21 2.2558815544471145e-05</internalNodes>
          <leafValues>
            -9.7227424383163452e-01 4.0441685914993286e-01</leafValues></_>
        <_>
          <internalNodes>
            0 -1 23 -9.4862138212192804e-05</internalNodes>
          <leafValues>
            -8.5843628644943237e-01 3.5822153091430664e-01</leafValues></_>
        <_>
          <internalNodes>
            0 -1 27 -1.8101599998772144e-03</internalNodes>
          <leafValues>
            -8.5523498058319092e-01 4.0274712443351746e-01</leafValues></_></weakClassifiers></_>
    <!-- stage 13 -->
    <_>
      <maxWeakCount>3</maxWeakCount>
      <stageThreshold>-9.2664557695388794e-01</stageThreshold>
      <weakClassifiers>
        <_>
          <internalNodes>
            0 -1 4 -4.9256451427936554e-02</internalNodes>
          <leafValues>
            8.6798679828643799e-01 -5.2917504310607910e-01</leafValues></_>
        <_>
          <internalNodes>
            0 -1 25 -1.6499479534104466e-04</internalNodes>
          <leafValues>
            -9.6869808435440063e-01 4.7550928592681885e-01</leafValues></_>
        <_>
          <internalNodes>
            0 -1 49 3.9479933911934495e-04</internalNodes>
          <leafValues>
            4.6323609352111816e-01 -8.7297976016998291e-01</leafValues></_></weakClassifiers></_>
    <!-- stage 14 -->
    <_>
      <maxWeakCount>3</maxWeakCount>
      <stageThreshold>-8.5730803012847900e-01</stageThreshold>
      <weakClassifiers>
        <_>
          <internalNodes>
            0 -1 0 -5.6294002570211887e-04</internalNodes>
          <leafValues>
            1. -7.2043013572692871e-01</leafValues></_>
        <_>
          <internalNodes>
            0 -1 49 3.9479933911934495e-04</internalNodes>
          <leafValues>
            7.2687816619873047e-01 -8.7102437019348145e-01</leafValues></_>
        <_>
          <internalNodes>
            0 -1 39 -1.7648265929892659e-04</internalNodes>
          <leafValues>
            7.3414641618728638e-01 -8.2804858684539795e-01</leafValues></_></weakClassifiers></_>
    <!-- stage 15 -->
    <_>
      <maxWeakCount>3</maxWeakCount>
      <stageThreshold>-7.4000114202499390e-01</stageThreshold>
      <weakClassifiers>
        <_>
          <internalNodes>
            0 -1 6 -3.1565390527248383e-03</internalNodes>
          <leafValues>
            1. -8.5614848136901855e-01</leafValues></_>
        <_>
          <internalNodes>
            0 -1 22 6.6668115323409438e-05</internalNodes>
          <leafValues>
            1. -6.9848060607910156e-01</leafValues></_>
        <_>
          <internalNodes>
            0 -1 40 -1.2571917613968253e-04</internalNodes>
          <leafValues>
            -8.8385266065597534e-01 8.5807794332504272e-01</leafValues></_></weakClassifiers></_></stages>
  <features>
    <_>
      <rects>
        <_>
          0 37 12 1 -1.</_>
        <_>
          6 37 6 1 2.</_></rects>
      <tilted>0</tilted></_>
    <_>
      <rects>
        <_>
          1 3 18 35 -1.</_>
        <_>
          7 3 6 35 3.</_></rects>
      <tilted>0</tilted></_>
    <_>
      <rects>
        <_>
          2 3 18 35 -1.</_>
        <_>
          8 3 6 35 3.</_></rects>
      <tilted>0</tilted></_>
    <_>
      <rects>
        <_>
          2 7 18 28 -1.</_>
        <_>
          8 7 6 28 3.</_></rects>
      <tilted>0</tilted></_>
    <_>
      <rects>
        <_>
          2 34 18 4 -1.</_>
        <_>
          8 34 6 4 3.</_></rects>
      <tilted>0</tilted></_>
    <_>
      <rects>
        <_>
          3 2 15 31 -1.</_>
        <_>
          8 2 5 31 3.</_></rects>
      <tilted>0</tilted></_>
    <_>
      <rects>
        <_>
          4 35 12 3 -1.</_>
        <_>
          8 35 4 3 3.</_></rects>
      <tilted>0</tilted></_>
    <_>
      <rects>
        <_>
          6 0 9 8 -1.</_>
        <_>
          6 4 9 4 2.</_></rects>
      <tilted>0</tilted></_>
    <_>
      <rects>
        <_>
          6 2 10 9 -1.</_>
        <_>
          6 5 10 3 3.</_></rects>
      <tilted>0</tilted></_>
    <_>
      <rects>
        <_>
          6 16 3 4 -1.</_>
        <_>
          7 16 1 4 3.</_></rects>
      <tilted>0</tilted></_>
    <_>
      <rects>
        <_>
          7 0 6 8 -1.</_>
        <_>
          7 4 6 4 2.</_></rects>
      <tilted>0</tilted></_>
    <_>
      <rects>
        <_>
          7 17 3 7 -1.</_>
        <_>
          8 17 1 7 3.</_></rects>
      <tilted>0</tilted></_>
    <_>
      <rects>
        <_>
          7 20 2 6 -1.</_>
        <_>
          7 20 1 3 2.</_>
        <_>
          8 23 1 3 2.</_></rects>
      <tilted>0</tilted></_>
    <_>
      <rects>
        <_>
          7 36 7 4 -1.</_>
        <_>
          7 38 7 2 2.</_></rects>
      <tilted>0</tilted></_>
    <_>
      <rects>
        <_>
          8 1 5 12 -1.</_>
        <_>
          8 5 5 4 3.</_></rects>
      <tilted>0</tilted></_>
    <_>
      <rects>
        <_>
          8 12 6 24 -1.</_>
        <_>
          8 24 6 12 2.</_></rects>
      <tilted>0</tilted></_>
    <_>
      <rects>
        <_>
          8 15 6 17 -1.</_>
        <_>
          10 15 2 17 3.</_></rects>
      <tilted>0</tilted></_>
    <_>
      <rects>
        <_>
          8 16 2 18 -1.</_>
        <_>
          8 16 1 9 2.</_>
        <_>
          9 25 1 9 2.</_></rects>
      <tilted>0</tilted></_>
    <_>
      <rects>
        <_>
          8 17 3 5 -1.</_>
        <_>
          9 17 1 5 3.</_></rects>
      <tilted>0</tilted></_>
    <_>
      <rects>
        <_>
          8 17 4 10 -1.</_>
        <_>
          8 17 2 5 2.</_>
        <_>
          10 22 2 5 2.</_></rects>
      <tilted>0</tilted></_>
    <_>
      <rects>
        <_>
          8 20 6 10 -1.</_>
        <_>
          8 20 3 5 2.</_>
        <_>
          11 25 3 5 2.</_></rects>
      <tilted>0</tilted></_>
    <_>
      <rects>
        <_>
          8 22 2 16 -1.</_>
        <_>
          8 30 2 8 2.</_></rects>
      <tilted>0</tilted></_>
    <_>
      <rects>
        <_>
          8 35 6 1 -1.</_>
        <_>
          10 35 2 1 3.</_></rects>
      <tilted>0</tilted></_>
    <_>
      <rects>
        <_>
          9 5 4 15 -1.</_>
        <_>
          9 10 4 5 3.</_></rects>
      <tilted>0</tilted></_>
    <_>
      <rects>
        <_>
          9 10 2 20 -1.</_>
        <_>
          10 10 1 20 2.</_></rects>
      <tilted>0</tilted></_>
    <_>
      <rects>
        <_>
          9 16 2 3 -1.</_>
        <_>
          9 17 2 1 3.</_></rects>
      <tilted>0</tilted></_>
    <_>
      <rects>
        <_>
          9 17 2 12 -1.</_>
        <_>
          9 17 1 6 2.</_>
        <_>
          10 23 1 6 2.</_></rects>
      <tilted>0</tilted></_>
    <_>
      <rects>
        <_>
          9 18 4 20 -1.</_>
        <_>
          9 18 2 10 2.</_>
        <_>
          11 28 2 10 2.</_></rects>
      <tilted>0</tilted></_>
    <_>
      <rects>
        <_>
          9 34 4 6 -1.</_>
        <_>
          9 36 4 2 3.</_></rects>
      <tilted>0</tilted></_>
    <_>
      <rects>
        <_>
          10 1 3 4 -1.</_>
        <_>
          10 3 3 2 2.</_></rects>
      <tilted>0</tilted></_>
    <_>
      <rects>
        <_>
          10 4 1 33 -1.</_>
        <_>
          10 15 1 11 3.</_></rects>
      <tilted>0</tilted></_>
    <_>
      <rects>
        <_>
          10 4 2 34 -1.</_>
        <_>
          10 21 2 17 2.</_></rects>
      <tilted>0</tilted></_>
    <_>
      <rects>
        <_>
          10 8 1 15 -1.</_>
        <_>
          10 13 1 5 3.</_></rects>
      <tilted>0</tilted></_>
    <_>
      <rects>
        <_>
          10 8 1 30 -1.</_>
        <_>
          10 23 1 15 2.</_></rects>
      <tilted>0</tilted></_>
    <_>
      <rects>
        <_>
          10 10 1 12 -1.</_>
        <_>
          10 16 1 6 2.</_></rects>
      <tilted>0</tilted></_>
    <_>
      <rects>
        <_>
          10 11 1 18 -1.</_>
        <_>
          10 17 1 6 3.</_></rects>
      <tilted>0</tilted></_>
    <_>
      <rects>
        <_>
          10 14 2 16 -1.</_>
        <_>
          11 14 1 16 2.</_></rects>
      <tilted>0</tilted></_>
    <_>
      <rects>
        <_>
          10 15 2 19 -1.</_>
        <_>
          11 15 1 19 2.</_></rects>
      <tilted>0</tilted></_>
    <_>
      <rects>
        <_>
          10 16 2 22 -1.</_>
        <_>
          10 27 2 11 2.</_></rects>
      <tilted>0</tilted></_>
    <_>
      <rects>
        <_>
          10 18 4 8 -1.</_>
        <_>
          10 18 2 4 2.</_>
        <_>
          12 22 2 4 2.</_></rects>
      <tilted>0</tilted></_>
    <_>
      <rects>
        <_>
          10 19 2 3 -1.</_>
        <_>
          10 20 2 1 3.</_></rects>
      <tilted>0</tilted></_>
    <_>
      <rects>
        <_>
          10 22 2 8 -1.</_>
        <_>
          10 26 2 4 2.</_></rects>
      <tilted>0</tilted></_>
    <_>
      <rects>
        <_>
          11 17 2 14 -1.</_>
        <_>
          11 17 1 7 2.</_>
        <_>
          12 24 1 7 2.</_></rects>
      <tilted>0</tilted></_>
    <_>
      <rects>
        <_>
          11 19 3 5 -1.</_>
        <_>
          12 19 1 5 3.</_></rects>
      <tilted>0</tilted></_>
    <_>
      <rects>
        <_>
          11 20 2 20 -1.</_>
        <_>
          11 30 2 10 2.</_></rects>
      <tilted>0</tilted></_>
    <_>
      <rects>
        <_>
          11 25 2 7 -1.</_>
        <_>
          12 25 1 7 2.</_></rects>
      <tilted>0</tilted></_>
    <_>
      <rects>
        <_>
          11 26 3 5 -1.</_>
        <_>
          12 26 1 5 3.</_></rects>
      <tilted>0</tilted></_>
    <_>
      <rects>
        <_>
          12 16 2 10 -1.</_>
        <_>
          12 16 1 5 2.</_>
        <_>
          13 21 1 5 2.</_></rects>
      <tilted>0</tilted></_>
    <_>
      <rects>
        <_>
          12 22 3 15 -1.</_>
        <_>
          13 22 1 15 3.</_></rects>
      <tilted>0</tilted></_>
    <_>
      <rects>
        <_>
          13 30 1 4 -1.</_>
        <_>
          13 32 1 2 2.</_></rects>
      <tilted>0</tilted></_></features></cascade>
</opencv_storage>
